digraph Tree {
node [shape=box, style="filled, rounded", color="black", fontname=helvetica] ;
edge [fontname=helvetica] ;
0 [label="RECON_RX_RISK_SCORE_NBR <= 0.07\ngini = 0.5\nsamples = 73387\nvalue = [57848, 58441]", fillcolor="#399de503"] ;
1 [label="COL <= 0.5\ngini = 0.49\nsamples = 39941\nvalue = [36637, 26784]", fillcolor="#e5813945"] ;
0 -> 1 [labeldistance=2.5, labelangle=45, headlabel="True"] ;
2 [label="CV_CHF <= 0.5\ngini = 0.5\nsamples = 19817\nvalue = [16298, 15232]", fillcolor="#e5813911"] ;
1 -> 2 ;
3 [label="RENAL <= 0.5\ngini = 0.49\nsamples = 17288\nvalue = [15191, 12319]", fillcolor="#e5813930"] ;
2 -> 3 ;
4 [label="CV_SNS <= 0.5\ngini = 0.49\nsamples = 14294\nvalue = [12946, 9881]", fillcolor="#e581393c"] ;
3 -> 4 ;
5 [label="RX_THER_75_YR2016 <= 0.12\ngini = 0.47\nsamples = 11149\nvalue = [10981, 6858]", fillcolor="#e5813960"] ;
4 -> 5 ;
6 [label="RX_THER_43_YR2016 <= 0.02\ngini = 0.47\nsamples = 11065\nvalue = [10839, 6858]", fillcolor="#e581395e"] ;
5 -> 6 ;
7 [label="CV_HDZ <= 0.5\ngini = 0.48\nsamples = 10422\nvalue = [10039, 6571]", fillcolor="#e5813958"] ;
6 -> 7 ;
8 [label="HYPERTENSION <= 0.5\ngini = 0.47\nsamples = 7988\nvalue = [8005, 4697]", fillcolor="#e5813969"] ;
7 -> 8 ;
9 [label="CDC_HBAPOOR_GAP <= 0.5\ngini = 0.4\nsamples = 2215\nvalue = [2556, 957]", fillcolor="#e58139a0"] ;
8 -> 9 ;
10 [label="POT_VISIT_11_Q04 <= 0.23\ngini = 0.37\nsamples = 2104\nvalue = [2511, 822]", fillcolor="#e58139ac"] ;
9 -> 10 ;
11 [label="Est_BMI_decile_5.0 <= 0.5\ngini = 0.36\nsamples = 2061\nvalue = [2503, 763]", fillcolor="#e58139b1"] ;
10 -> 11 ;
12 [label="CON_VISIT_28_Q03 <= 0.03\ngini = 0.38\nsamples = 1866\nvalue = [2214, 763]", fillcolor="#e58139a7"] ;
11 -> 12 ;
13 [label="CV_CAD <= 0.5\ngini = 0.37\nsamples = 1849\nvalue = [2214, 733]", fillcolor="#e58139ab"] ;
12 -> 13 ;
14 [label="POT_VISIT_22_Q03 <= 0.01\ngini = 0.35\nsamples = 1716\nvalue = [2127, 612]", fillcolor="#e58139b6"] ;
13 -> 14 ;
15 [label="Population_density_centile_ST <= 0.6\ngini = 0.37\nsamples = 1544\nvalue = [1859, 612]", fillcolor="#e58139ab"] ;
14 -> 15 ;
16 [label="CON_VISIT_07_Q03 <= 0.01\ngini = 0.22\nsamples = 689\nvalue = [971, 136]", fillcolor="#e58139db"] ;
15 -> 16 ;
17 [label="CON_VISIT_30_Q04 <= 0.07\ngini = 0.17\nsamples = 655\nvalue = [952, 102]", fillcolor="#e58139e4"] ;
16 -> 17 ;
18 [label="DUAL_Y <= 0.5\ngini = 0.13\nsamples = 639\nvalue = [950, 74]", fillcolor="#e58139eb"] ;
17 -> 18 ;
19 [label="RX_THER_39_YR2016 <= 0.01\ngini = 0.06\nsamples = 543\nvalue = [844, 28]", fillcolor="#e58139f7"] ;
18 -> 19 ;
20 [label="gini = 0.09\nsamples = 377\nvalue = [583, 28]", fillcolor="#e58139f3"] ;
19 -> 20 ;
21 [label="gini = 0.0\nsamples = 166\nvalue = [261, 0]", fillcolor="#e58139ff"] ;
19 -> 21 ;
22 [label="CON_VISIT_33_Q03 <= 0.03\ngini = 0.42\nsamples = 96\nvalue = [106, 46]", fillcolor="#e5813990"] ;
18 -> 22 ;
23 [label="gini = 0.3\nsamples = 80\nvalue = [105, 24]", fillcolor="#e58139c5"] ;
22 -> 23 ;
24 [label="gini = 0.08\nsamples = 16\nvalue = [1, 22]", fillcolor="#399de5f3"] ;
22 -> 24 ;
25 [label="MCO_PROD_TYPE_CD_RPPO <= 0.5\ngini = 0.12\nsamples = 16\nvalue = [2, 28]", fillcolor="#399de5ed"] ;
17 -> 25 ;
26 [label="gini = 0.0\nsamples = 15\nvalue = [0, 28]", fillcolor="#399de5ff"] ;
25 -> 26 ;
27 [label="gini = 0.0\nsamples = 1\nvalue = [2, 0]", fillcolor="#e58139ff"] ;
25 -> 27 ;
28 [label="CON_VISIT_10_Q04 <= 0.01\ngini = 0.46\nsamples = 34\nvalue = [19, 34]", fillcolor="#399de570"] ;
16 -> 28 ;
29 [label="gini = 0.0\nsamples = 13\nvalue = [19, 0]", fillcolor="#e58139ff"] ;
28 -> 29 ;
30 [label="gini = 0.0\nsamples = 21\nvalue = [0, 34]", fillcolor="#399de5ff"] ;
28 -> 30 ;
31 [label="CON_VISIT_21_Q04 <= 0.12\ngini = 0.45\nsamples = 855\nvalue = [888, 476]", fillcolor="#e5813976"] ;
15 -> 31 ;
32 [label="POT_VISIT_11_Q02 <= 0.02\ngini = 0.44\nsamples = 834\nvalue = [887, 437]", fillcolor="#e5813981"] ;
31 -> 32 ;
33 [label="MCO_PROD_TYPE_CD_HMO <= 0.5\ngini = 0.49\nsamples = 610\nvalue = [563, 411]", fillcolor="#e5813945"] ;
32 -> 33 ;
34 [label="CON_VISIT_33_Q02 <= 0.01\ngini = 0.5\nsamples = 392\nvalue = [301, 332]", fillcolor="#399de518"] ;
33 -> 34 ;
35 [label="gini = 0.5\nsamples = 374\nvalue = [273, 332]", fillcolor="#399de52d"] ;
34 -> 35 ;
36 [label="gini = 0.0\nsamples = 18\nvalue = [28, 0]", fillcolor="#e58139ff"] ;
34 -> 36 ;
37 [label="Est_income <= 0.14\ngini = 0.36\nsamples = 218\nvalue = [262, 79]", fillcolor="#e58139b2"] ;
33 -> 37 ;
38 [label="gini = 0.0\nsamples = 114\nvalue = [181, 0]", fillcolor="#e58139ff"] ;
37 -> 38 ;
39 [label="gini = 0.5\nsamples = 104\nvalue = [81, 79]", fillcolor="#e5813906"] ;
37 -> 39 ;
40 [label="CON_VISIT_31_Q03 <= 0.03\ngini = 0.14\nsamples = 224\nvalue = [324, 26]", fillcolor="#e58139eb"] ;
32 -> 40 ;
41 [label="gini = 0.0\nsamples = 204\nvalue = [320, 0]", fillcolor="#e58139ff"] ;
40 -> 41 ;
42 [label="POT_VISIT_11_Q04 <= 0.03\ngini = 0.23\nsamples = 20\nvalue = [4, 26]", fillcolor="#399de5d8"] ;
40 -> 42 ;
43 [label="gini = 0.0\nsamples = 18\nvalue = [0, 26]", fillcolor="#399de5ff"] ;
42 -> 43 ;
44 [label="gini = 0.0\nsamples = 2\nvalue = [4, 0]", fillcolor="#e58139ff"] ;
42 -> 44 ;
45 [label="RX_THER_75_YR2016 <= 0.01\ngini = 0.05\nsamples = 21\nvalue = [1, 39]", fillcolor="#399de5f8"] ;
31 -> 45 ;
46 [label="gini = 0.0\nsamples = 20\nvalue = [0, 39]", fillcolor="#399de5ff"] ;
45 -> 46 ;
47 [label="gini = 0.0\nsamples = 1\nvalue = [1, 0]", fillcolor="#e58139ff"] ;
45 -> 47 ;
48 [label="gini = 0.0\nsamples = 172\nvalue = [268, 0]", fillcolor="#e58139ff"] ;
14 -> 48 ;
49 [label="Online_User <= 0.5\ngini = 0.49\nsamples = 133\nvalue = [87, 121]", fillcolor="#399de548"] ;
13 -> 49 ;
50 [label="gini = 0.0\nsamples = 22\nvalue = [34, 0]", fillcolor="#e58139ff"] ;
49 -> 50 ;
51 [label="CON_VISIT_19_Q02 <= 0.02\ngini = 0.42\nsamples = 111\nvalue = [53, 121]", fillcolor="#399de58f"] ;
49 -> 51 ;
52 [label="POT_VISIT_12_Q03 <= 0.0\ngini = 0.4\nsamples = 107\nvalue = [45, 121]", fillcolor="#399de5a0"] ;
51 -> 52 ;
53 [label="DIAB_ELIG <= 0.5\ngini = 0.48\nsamples = 68\nvalue = [43, 62]", fillcolor="#399de54e"] ;
52 -> 53 ;
54 [label="Est_BMI_decile_1.0 <= 0.5\ngini = 0.49\nsamples = 49\nvalue = [43, 33]", fillcolor="#e581393b"] ;
53 -> 54 ;
55 [label="Population_density_centile_ST <= 0.8\ngini = 0.5\nsamples = 46\nvalue = [38, 33]", fillcolor="#e5813922"] ;
54 -> 55 ;
56 [label="gini = 0.0\nsamples = 20\nvalue = [32, 0]", fillcolor="#e58139ff"] ;
55 -> 56 ;
57 [label="gini = 0.26\nsamples = 26\nvalue = [6, 33]", fillcolor="#399de5d1"] ;
55 -> 57 ;
58 [label="gini = 0.0\nsamples = 3\nvalue = [5, 0]", fillcolor="#e58139ff"] ;
54 -> 58 ;
59 [label="gini = 0.0\nsamples = 19\nvalue = [0, 29]", fillcolor="#399de5ff"] ;
53 -> 59 ;
60 [label="CON_VISIT_33_Q03 <= 0.01\ngini = 0.06\nsamples = 39\nvalue = [2, 59]", fillcolor="#399de5f6"] ;
52 -> 60 ;
61 [label="gini = 0.0\nsamples = 38\nvalue = [0, 59]", fillcolor="#399de5ff"] ;
60 -> 61 ;
62 [label="gini = 0.0\nsamples = 1\nvalue = [2, 0]", fillcolor="#e58139ff"] ;
60 -> 62 ;
63 [label="gini = 0.0\nsamples = 4\nvalue = [8, 0]", fillcolor="#e58139ff"] ;
51 -> 63 ;
64 [label="gini = 0.0\nsamples = 17\nvalue = [0, 30]", fillcolor="#399de5ff"] ;
12 -> 64 ;
65 [label="gini = 0.0\nsamples = 195\nvalue = [289, 0]", fillcolor="#e58139ff"] ;
11 -> 65 ;
66 [label="CON_VISIT_19_Q01 <= 0.06\ngini = 0.21\nsamples = 43\nvalue = [8, 59]", fillcolor="#399de5dc"] ;
10 -> 66 ;
67 [label="CON_VISIT_09_Q03 <= 0.02\ngini = 0.19\nsamples = 42\nvalue = [7, 59]", fillcolor="#399de5e1"] ;
66 -> 67 ;
68 [label="gini = 0.0\nsamples = 4\nvalue = [4, 0]", fillcolor="#e58139ff"] ;
67 -> 68 ;
69 [label="Education_level_3.0 <= 0.5\ngini = 0.09\nsamples = 38\nvalue = [3, 59]", fillcolor="#399de5f2"] ;
67 -> 69 ;
70 [label="POT_VISIT_22_Q01 <= 0.01\ngini = 0.2\nsamples = 16\nvalue = [3, 23]", fillcolor="#399de5de"] ;
69 -> 70 ;
71 [label="gini = 0.0\nsamples = 15\nvalue = [0, 23]", fillcolor="#399de5ff"] ;
70 -> 71 ;
72 [label="gini = 0.0\nsamples = 1\nvalue = [3, 0]", fillcolor="#e58139ff"] ;
70 -> 72 ;
73 [label="gini = 0.0\nsamples = 22\nvalue = [0, 36]", fillcolor="#399de5ff"] ;
69 -> 73 ;
74 [label="gini = 0.0\nsamples = 1\nvalue = [1, 0]", fillcolor="#e58139ff"] ;
66 -> 74 ;
75 [label="HYPERLIPID <= 0.5\ngini = 0.38\nsamples = 111\nvalue = [45, 135]", fillcolor="#399de5aa"] ;
9 -> 75 ;
76 [label="POT_VISIT_11_Q03 <= 0.02\ngini = 0.28\nsamples = 99\nvalue = [28, 135]", fillcolor="#399de5ca"] ;
75 -> 76 ;
77 [label="POT_VISIT_22_Q02 <= 0.0\ngini = 0.23\nsamples = 94\nvalue = [21, 135]", fillcolor="#399de5d7"] ;
76 -> 77 ;
78 [label="College <= 0.5\ngini = 0.16\nsamples = 90\nvalue = [13, 135]", fillcolor="#399de5e6"] ;
77 -> 78 ;
79 [label="Decile_struggle_Med_lang_6.0 <= 0.5\ngini = 0.13\nsamples = 88\nvalue = [10, 135]", fillcolor="#399de5ec"] ;
78 -> 79 ;
80 [label="RX_THER_39_YR2016 <= 0.03\ngini = 0.09\nsamples = 86\nvalue = [7, 135]", fillcolor="#399de5f2"] ;
79 -> 80 ;
81 [label="Num_person_household <= 0.09\ngini = 0.06\nsamples = 84\nvalue = [4, 135]", fillcolor="#399de5f7"] ;
80 -> 81 ;
82 [label="RX_THER_17_YR2016 <= 0.1\ngini = 0.03\nsamples = 82\nvalue = [2, 135]", fillcolor="#399de5fb"] ;
81 -> 82 ;
83 [label="RX_THER_27_YR2016 <= 0.07\ngini = 0.01\nsamples = 81\nvalue = [1, 135]", fillcolor="#399de5fd"] ;
82 -> 83 ;
84 [label="gini = 0.0\nsamples = 80\nvalue = [0, 135]", fillcolor="#399de5ff"] ;
83 -> 84 ;
85 [label="gini = 0.0\nsamples = 1\nvalue = [1, 0]", fillcolor="#e58139ff"] ;
83 -> 85 ;
86 [label="gini = 0.0\nsamples = 1\nvalue = [1, 0]", fillcolor="#e58139ff"] ;
82 -> 86 ;
87 [label="gini = 0.0\nsamples = 2\nvalue = [2, 0]", fillcolor="#e58139ff"] ;
81 -> 87 ;
88 [label="gini = 0.0\nsamples = 2\nvalue = [3, 0]", fillcolor="#e58139ff"] ;
80 -> 88 ;
89 [label="gini = 0.0\nsamples = 2\nvalue = [3, 0]", fillcolor="#e58139ff"] ;
79 -> 89 ;
90 [label="gini = 0.0\nsamples = 2\nvalue = [3, 0]", fillcolor="#e58139ff"] ;
78 -> 90 ;
91 [label="gini = 0.0\nsamples = 4\nvalue = [8, 0]", fillcolor="#e58139ff"] ;
77 -> 91 ;
92 [label="gini = 0.0\nsamples = 5\nvalue = [7, 0]", fillcolor="#e58139ff"] ;
76 -> 92 ;
93 [label="gini = 0.0\nsamples = 12\nvalue = [17, 0]", fillcolor="#e58139ff"] ;
75 -> 93 ;
94 [label="CV_CER <= 0.5\ngini = 0.48\nsamples = 5773\nvalue = [5449, 3740]", fillcolor="#e5813950"] ;
8 -> 94 ;
95 [label="CON_VISIT_09_Q03 <= 0.02\ngini = 0.47\nsamples = 5168\nvalue = [5067, 3175]", fillcolor="#e581395f"] ;
94 -> 95 ;
96 [label="Pct_above_poverty_line <= 0.96\ngini = 0.48\nsamples = 4921\nvalue = [4716, 3125]", fillcolor="#e5813956"] ;
95 -> 96 ;
97 [label="DUAL_Y <= 0.5\ngini = 0.49\nsamples = 3924\nvalue = [3554, 2713]", fillcolor="#e581393c"] ;
96 -> 97 ;
98 [label="RECON_MA_RISK_SCORE_NBR <= 0.05\ngini = 0.48\nsamples = 3522\nvalue = [3319, 2319]", fillcolor="#e581394d"] ;
97 -> 98 ;
99 [label="CON_VISIT_10_Q03 <= 0.06\ngini = 0.43\nsamples = 1959\nvalue = [2143, 979]", fillcolor="#e581398b"] ;
98 -> 99 ;
100 [label="Home_value <= 0.06\ngini = 0.42\nsamples = 1916\nvalue = [2128, 926]", fillcolor="#e5813990"] ;
99 -> 100 ;
101 [label="CON_VISIT_19_Q02 <= 0.02\ngini = 0.44\nsamples = 1754\nvalue = [1863, 926]", fillcolor="#e5813980"] ;
100 -> 101 ;
102 [label="RX_THER_56_YR2016 <= 0.16\ngini = 0.46\nsamples = 1550\nvalue = [1578, 883]", fillcolor="#e5813970"] ;
101 -> 102 ;
103 [label="SEX_CD_F <= 0.5\ngini = 0.45\nsamples = 1499\nvalue = [1562, 817]", fillcolor="#e581397a"] ;
102 -> 103 ;
104 [label="CON_VISIT_33_Q03 <= 0.01\ngini = 0.5\nsamples = 714\nvalue = [620, 514]", fillcolor="#e581392c"] ;
103 -> 104 ;
105 [label="gini = 0.5\nsamples = 663\nvalue = [546, 514]", fillcolor="#e581390f"] ;
104 -> 105 ;
106 [label="gini = 0.0\nsamples = 51\nvalue = [74, 0]", fillcolor="#e58139ff"] ;
104 -> 106 ;
107 [label="CON_VISIT_06_Q01 <= 0.02\ngini = 0.37\nsamples = 785\nvalue = [942, 303]", fillcolor="#e58139ad"] ;
103 -> 107 ;
108 [label="gini = 0.35\nsamples = 757\nvalue = [927, 273]", fillcolor="#e58139b4"] ;
107 -> 108 ;
109 [label="gini = 0.44\nsamples = 28\nvalue = [15, 30]", fillcolor="#399de57f"] ;
107 -> 109 ;
110 [label="RX_THER_56_YR2016 <= 0.24\ngini = 0.31\nsamples = 51\nvalue = [16, 66]", fillcolor="#399de5c1"] ;
102 -> 110 ;
111 [label="PREDIABETES <= 0.5\ngini = 0.23\nsamples = 46\nvalue = [10, 66]", fillcolor="#399de5d8"] ;
110 -> 111 ;
112 [label="gini = 0.15\nsamples = 44\nvalue = [6, 66]", fillcolor="#399de5e8"] ;
111 -> 112 ;
113 [label="gini = 0.0\nsamples = 2\nvalue = [4, 0]", fillcolor="#e58139ff"] ;
111 -> 113 ;
114 [label="gini = 0.0\nsamples = 5\nvalue = [6, 0]", fillcolor="#e58139ff"] ;
110 -> 114 ;
115 [label="RX_THER_62_YR2016 <= 0.04\ngini = 0.23\nsamples = 204\nvalue = [285, 43]", fillcolor="#e58139d9"] ;
101 -> 115 ;
116 [label="POT_VISIT_11_Q04 <= 0.04\ngini = 0.12\nsamples = 189\nvalue = [283, 20]", fillcolor="#e58139ed"] ;
115 -> 116 ;
117 [label="gini = 0.0\nsamples = 135\nvalue = [213, 0]", fillcolor="#e58139ff"] ;
116 -> 117 ;
118 [label="CON_VISIT_32_Q02 <= 0.01\ngini = 0.35\nsamples = 54\nvalue = [70, 20]", fillcolor="#e58139b6"] ;
116 -> 118 ;
119 [label="gini = 0.0\nsamples = 38\nvalue = [69, 0]", fillcolor="#e58139ff"] ;
118 -> 119 ;
120 [label="gini = 0.09\nsamples = 16\nvalue = [1, 20]", fillcolor="#399de5f2"] ;
118 -> 120 ;
121 [label="Index_Health_ins_influence_4.0 <= 0.5\ngini = 0.15\nsamples = 15\nvalue = [2, 23]", fillcolor="#399de5e9"] ;
115 -> 121 ;
122 [label="gini = 0.0\nsamples = 1\nvalue = [2, 0]", fillcolor="#e58139ff"] ;
121 -> 122 ;
123 [label="gini = 0.0\nsamples = 14\nvalue = [0, 23]", fillcolor="#399de5ff"] ;
121 -> 123 ;
124 [label="gini = 0.0\nsamples = 162\nvalue = [265, 0]", fillcolor="#e58139ff"] ;
100 -> 124 ;
125 [label="Index_Health_ins_influence_1.0 <= 0.5\ngini = 0.34\nsamples = 43\nvalue = [15, 53]", fillcolor="#399de5b7"] ;
99 -> 125 ;
126 [label="RX_THER_94_YR2016 <= 0.12\ngini = 0.25\nsamples = 40\nvalue = [9, 53]", fillcolor="#399de5d4"] ;
125 -> 126 ;
127 [label="CON_VISIT_10_Q02 <= 0.02\ngini = 0.18\nsamples = 38\nvalue = [6, 53]", fillcolor="#399de5e2"] ;
126 -> 127 ;
128 [label="CON_VISIT_32_Q04 <= 0.0\ngini = 0.13\nsamples = 36\nvalue = [4, 53]", fillcolor="#399de5ec"] ;
127 -> 128 ;
129 [label="RX_THER_53_YR2016 <= 0.02\ngini = 0.07\nsamples = 35\nvalue = [2, 53]", fillcolor="#399de5f5"] ;
128 -> 129 ;
130 [label="gini = 0.0\nsamples = 2\nvalue = [2, 0]", fillcolor="#e58139ff"] ;
129 -> 130 ;
131 [label="gini = 0.0\nsamples = 33\nvalue = [0, 53]", fillcolor="#399de5ff"] ;
129 -> 131 ;
132 [label="gini = 0.0\nsamples = 1\nvalue = [2, 0]", fillcolor="#e58139ff"] ;
128 -> 132 ;
133 [label="gini = 0.0\nsamples = 2\nvalue = [2, 0]", fillcolor="#e58139ff"] ;
127 -> 133 ;
134 [label="gini = 0.0\nsamples = 2\nvalue = [3, 0]", fillcolor="#e58139ff"] ;
126 -> 134 ;
135 [label="gini = 0.0\nsamples = 3\nvalue = [6, 0]", fillcolor="#e58139ff"] ;
125 -> 135 ;
136 [label="CON_VISIT_27_Q01 <= 0.03\ngini = 0.5\nsamples = 1563\nvalue = [1176, 1340]", fillcolor="#399de51f"] ;
98 -> 136 ;
137 [label="Length_residence <= 0.22\ngini = 0.5\nsamples = 1479\nvalue = [1166, 1201]", fillcolor="#399de507"] ;
136 -> 137 ;
138 [label="Pct_above_poverty_line <= 0.93\ngini = 0.49\nsamples = 1007\nvalue = [891, 718]", fillcolor="#e5813932"] ;
137 -> 138 ;
139 [label="POT_VISIT_21_Q02 <= 0.02\ngini = 0.48\nsamples = 694\nvalue = [674, 432]", fillcolor="#e581395c"] ;
138 -> 139 ;
140 [label="RECON_MA_RISK_SCORE_NBR <= 0.05\ngini = 0.46\nsamples = 653\nvalue = [671, 367]", fillcolor="#e5813974"] ;
139 -> 140 ;
141 [label="Population_density_centile_ST <= 0.15\ngini = 0.49\nsamples = 146\nvalue = [95, 132]", fillcolor="#399de547"] ;
140 -> 141 ;
142 [label="gini = 0.18\nsamples = 49\nvalue = [8, 71]", fillcolor="#399de5e2"] ;
141 -> 142 ;
143 [label="gini = 0.48\nsamples = 97\nvalue = [87, 61]", fillcolor="#e581394c"] ;
141 -> 143 ;
144 [label="RX_THER_86_YR2016 <= 0.06\ngini = 0.41\nsamples = 507\nvalue = [576, 235]", fillcolor="#e5813997"] ;
140 -> 144 ;
145 [label="gini = 0.36\nsamples = 445\nvalue = [547, 167]", fillcolor="#e58139b1"] ;
144 -> 145 ;
146 [label="gini = 0.42\nsamples = 62\nvalue = [29, 68]", fillcolor="#399de592"] ;
144 -> 146 ;
147 [label="Population_density_centile_US <= 0.88\ngini = 0.08\nsamples = 41\nvalue = [3, 65]", fillcolor="#399de5f3"] ;
139 -> 147 ;
148 [label="RX_THER_75_YR2016 <= 0.01\ngini = 0.03\nsamples = 40\nvalue = [1, 65]", fillcolor="#399de5fb"] ;
147 -> 148 ;
149 [label="gini = 0.0\nsamples = 39\nvalue = [0, 65]", fillcolor="#399de5ff"] ;
148 -> 149 ;
150 [label="gini = 0.0\nsamples = 1\nvalue = [1, 0]", fillcolor="#e58139ff"] ;
148 -> 150 ;
151 [label="gini = 0.0\nsamples = 1\nvalue = [2, 0]", fillcolor="#e58139ff"] ;
147 -> 151 ;
152 [label="Diab_Complications <= 0.5\ngini = 0.49\nsamples = 313\nvalue = [217, 286]", fillcolor="#399de53e"] ;
138 -> 152 ;
153 [label="AGE <= 0.75\ngini = 0.47\nsamples = 287\nvalue = [176, 286]", fillcolor="#399de562"] ;
152 -> 153 ;
154 [label="RX_THER_97_YR2016 <= 0.1\ngini = 0.43\nsamples = 71\nvalue = [82, 38]", fillcolor="#e5813989"] ;
153 -> 154 ;
155 [label="gini = 0.0\nsamples = 48\nvalue = [80, 0]", fillcolor="#e58139ff"] ;
154 -> 155 ;
156 [label="gini = 0.09\nsamples = 23\nvalue = [2, 38]", fillcolor="#399de5f2"] ;
154 -> 156 ;
157 [label="RECON_MA_RISK_SCORE_NBR <= 0.08\ngini = 0.4\nsamples = 216\nvalue = [94, 248]", fillcolor="#399de59e"] ;
153 -> 157 ;
158 [label="gini = 0.34\nsamples = 203\nvalue = [68, 248]", fillcolor="#399de5b9"] ;
157 -> 158 ;
159 [label="gini = 0.0\nsamples = 13\nvalue = [26, 0]", fillcolor="#e58139ff"] ;
157 -> 159 ;
160 [label="gini = 0.0\nsamples = 26\nvalue = [41, 0]", fillcolor="#e58139ff"] ;
152 -> 160 ;
161 [label="Est_BMI_decile_6.0 <= 0.5\ngini = 0.46\nsamples = 472\nvalue = [275, 483]", fillcolor="#399de56e"] ;
137 -> 161 ;
162 [label="CON_VISIT_04_Q02 <= 0.02\ngini = 0.48\nsamples = 381\nvalue = [248, 374]", fillcolor="#399de556"] ;
161 -> 162 ;
163 [label="Est_BMI_decile_8.0 <= 0.5\ngini = 0.47\nsamples = 369\nvalue = [228, 374]", fillcolor="#399de564"] ;
162 -> 163 ;
164 [label="POT_VISIT_22_Q04 <= 0.01\ngini = 0.45\nsamples = 352\nvalue = [194, 374]", fillcolor="#399de57b"] ;
163 -> 164 ;
165 [label="gini = 0.43\nsamples = 336\nvalue = [172, 374]", fillcolor="#399de58a"] ;
164 -> 165 ;
166 [label="gini = 0.0\nsamples = 16\nvalue = [22, 0]", fillcolor="#e58139ff"] ;
164 -> 166 ;
167 [label="gini = 0.0\nsamples = 17\nvalue = [34, 0]", fillcolor="#e58139ff"] ;
163 -> 167 ;
168 [label="gini = 0.0\nsamples = 12\nvalue = [20, 0]", fillcolor="#e58139ff"] ;
162 -> 168 ;
169 [label="Education_level_3.0 <= 0.5\ngini = 0.32\nsamples = 91\nvalue = [27, 109]", fillcolor="#399de5c0"] ;
161 -> 169 ;
170 [label="AGE <= 0.85\ngini = 0.13\nsamples = 76\nvalue = [8, 109]", fillcolor="#399de5ec"] ;
169 -> 170 ;
171 [label="gini = 0.0\nsamples = 7\nvalue = [7, 0]", fillcolor="#e58139ff"] ;
170 -> 171 ;
172 [label="Est_Net_worth <= 0.81\ngini = 0.02\nsamples = 69\nvalue = [1, 109]", fillcolor="#399de5fd"] ;
170 -> 172 ;
173 [label="gini = 0.0\nsamples = 47\nvalue = [0, 73]", fillcolor="#399de5ff"] ;
172 -> 173 ;
174 [label="gini = 0.05\nsamples = 22\nvalue = [1, 36]", fillcolor="#399de5f8"] ;
172 -> 174 ;
175 [label="gini = 0.0\nsamples = 15\nvalue = [19, 0]", fillcolor="#e58139ff"] ;
169 -> 175 ;
176 [label="Home_value <= 0.01\ngini = 0.13\nsamples = 84\nvalue = [10, 139]", fillcolor="#399de5ed"] ;
136 -> 176 ;
177 [label="gini = 0.0\nsamples = 4\nvalue = [7, 0]", fillcolor="#e58139ff"] ;
176 -> 177 ;
178 [label="Online_User <= 0.5\ngini = 0.04\nsamples = 80\nvalue = [3, 139]", fillcolor="#399de5f9"] ;
176 -> 178 ;
179 [label="gini = 0.0\nsamples = 77\nvalue = [0, 139]", fillcolor="#399de5ff"] ;
178 -> 179 ;
180 [label="gini = 0.0\nsamples = 3\nvalue = [3, 0]", fillcolor="#e58139ff"] ;
178 -> 180 ;
181 [label="RX_THER_33_YR2016 <= 0.07\ngini = 0.47\nsamples = 402\nvalue = [235, 394]", fillcolor="#399de567"] ;
97 -> 181 ;
182 [label="CON_VISIT_08_Q04 <= 0.01\ngini = 0.44\nsamples = 366\nvalue = [188, 394]", fillcolor="#399de585"] ;
181 -> 182 ;
183 [label="CON_VISIT_19_Q04 <= 0.02\ngini = 0.47\nsamples = 288\nvalue = [184, 293]", fillcolor="#399de55f"] ;
182 -> 183 ;
184 [label="ORIG_REAS_ENTITLE_CD_0.0 <= 0.5\ngini = 0.46\nsamples = 275\nvalue = [159, 293]", fillcolor="#399de575"] ;
183 -> 184 ;
185 [label="gini = 0.0\nsamples = 30\nvalue = [48, 0]", fillcolor="#e58139ff"] ;
184 -> 185 ;
186 [label="CON_VISIT_18_Q02 <= 0.05\ngini = 0.4\nsamples = 245\nvalue = [111, 293]", fillcolor="#399de59e"] ;
184 -> 186 ;
187 [label="CON_VISIT_21_Q03 <= 0.01\ngini = 0.39\nsamples = 243\nvalue = [106, 293]", fillcolor="#399de5a3"] ;
186 -> 187 ;
188 [label="Est_income <= 0.03\ngini = 0.36\nsamples = 233\nvalue = [91, 293]", fillcolor="#399de5b0"] ;
187 -> 188 ;
189 [label="gini = 0.2\nsamples = 151\nvalue = [29, 230]", fillcolor="#399de5df"] ;
188 -> 189 ;
190 [label="gini = 0.5\nsamples = 82\nvalue = [62, 63]", fillcolor="#399de504"] ;
188 -> 190 ;
191 [label="gini = 0.0\nsamples = 10\nvalue = [15, 0]", fillcolor="#e58139ff"] ;
187 -> 191 ;
192 [label="gini = 0.0\nsamples = 2\nvalue = [5, 0]", fillcolor="#e58139ff"] ;
186 -> 192 ;
193 [label="gini = 0.0\nsamples = 13\nvalue = [25, 0]", fillcolor="#e58139ff"] ;
183 -> 193 ;
194 [label="CDC_HBAPOOR_GAP <= 0.5\ngini = 0.07\nsamples = 78\nvalue = [4, 101]", fillcolor="#399de5f5"] ;
182 -> 194 ;
195 [label="RECON_RX_RISK_SCORE_NBR <= 0.07\ngini = 0.04\nsamples = 77\nvalue = [2, 101]", fillcolor="#399de5fa"] ;
194 -> 195 ;
196 [label="Decile_struggle_Med_lang_9.0 <= 0.5\ngini = 0.02\nsamples = 76\nvalue = [1, 101]", fillcolor="#399de5fc"] ;
195 -> 196 ;
197 [label="gini = 0.0\nsamples = 75\nvalue = [0, 101]", fillcolor="#399de5ff"] ;
196 -> 197 ;
198 [label="gini = 0.0\nsamples = 1\nvalue = [1, 0]", fillcolor="#e58139ff"] ;
196 -> 198 ;
199 [label="gini = 0.0\nsamples = 1\nvalue = [1, 0]", fillcolor="#e58139ff"] ;
195 -> 199 ;
200 [label="gini = 0.0\nsamples = 1\nvalue = [2, 0]", fillcolor="#e58139ff"] ;
194 -> 200 ;
201 [label="gini = 0.0\nsamples = 36\nvalue = [47, 0]", fillcolor="#e58139ff"] ;
181 -> 201 ;
202 [label="Est_BMI_decile_2.0 <= 0.5\ngini = 0.39\nsamples = 997\nvalue = [1162, 412]", fillcolor="#e58139a5"] ;
96 -> 202 ;
203 [label="RX_THER_52_YR2016 <= 0.24\ngini = 0.32\nsamples = 869\nvalue = [1089, 273]", fillcolor="#e58139bf"] ;
202 -> 203 ;
204 [label="RX_THER_28_YR2016 <= 0.24\ngini = 0.3\nsamples = 849\nvalue = [1089, 248]", fillcolor="#e58139c5"] ;
203 -> 204 ;
205 [label="RX_THER_77_YR2016 <= 0.02\ngini = 0.28\nsamples = 829\nvalue = [1088, 219]", fillcolor="#e58139cc"] ;
204 -> 205 ;
206 [label="CON_VISIT_01_Q04 <= 0.02\ngini = 0.23\nsamples = 773\nvalue = [1065, 160]", fillcolor="#e58139d9"] ;
205 -> 206 ;
207 [label="RX_THER_41_YR2016 <= 0.16\ngini = 0.16\nsamples = 733\nvalue = [1057, 103]", fillcolor="#e58139e6"] ;
206 -> 207 ;
208 [label="POT_VISIT_22_Q04 <= 0.0\ngini = 0.13\nsamples = 716\nvalue = [1056, 78]", fillcolor="#e58139ec"] ;
207 -> 208 ;
209 [label="gini = 0.0\nsamples = 518\nvalue = [817, 0]", fillcolor="#e58139ff"] ;
208 -> 209 ;
210 [label="CON_VISIT_31_Q01 <= 0.05\ngini = 0.37\nsamples = 198\nvalue = [239, 78]", fillcolor="#e58139ac"] ;
208 -> 210 ;
211 [label="gini = 0.29\nsamples = 178\nvalue = [231, 50]", fillcolor="#e58139c8"] ;
210 -> 211 ;
212 [label="gini = 0.35\nsamples = 20\nvalue = [8, 28]", fillcolor="#399de5b6"] ;
210 -> 212 ;
213 [label="RX_THER_33_YR2016 <= 0.04\ngini = 0.07\nsamples = 17\nvalue = [1, 25]", fillcolor="#399de5f5"] ;
207 -> 213 ;
214 [label="gini = 0.0\nsamples = 16\nvalue = [0, 25]", fillcolor="#399de5ff"] ;
213 -> 214 ;
215 [label="gini = 0.0\nsamples = 1\nvalue = [1, 0]", fillcolor="#e58139ff"] ;
213 -> 215 ;
216 [label="CON_VISIT_05_Q04 <= 0.03\ngini = 0.22\nsamples = 40\nvalue = [8, 57]", fillcolor="#399de5db"] ;
206 -> 216 ;
217 [label="Home_value <= 0.06\ngini = 0.15\nsamples = 39\nvalue = [5, 57]", fillcolor="#399de5e9"] ;
216 -> 217 ;
218 [label="RX_THER_39_YR2016 <= 0.06\ngini = 0.03\nsamples = 36\nvalue = [1, 57]", fillcolor="#399de5fb"] ;
217 -> 218 ;
219 [label="gini = 0.0\nsamples = 35\nvalue = [0, 57]", fillcolor="#399de5ff"] ;
218 -> 219 ;
220 [label="gini = 0.0\nsamples = 1\nvalue = [1, 0]", fillcolor="#e58139ff"] ;
218 -> 220 ;
221 [label="gini = 0.0\nsamples = 3\nvalue = [4, 0]", fillcolor="#e58139ff"] ;
217 -> 221 ;
222 [label="gini = 0.0\nsamples = 1\nvalue = [3, 0]", fillcolor="#e58139ff"] ;
216 -> 222 ;
223 [label="ARTH <= 0.5\ngini = 0.4\nsamples = 56\nvalue = [23, 59]", fillcolor="#399de59c"] ;
205 -> 223 ;
224 [label="Home_value <= 0.05\ngini = 0.32\nsamples = 52\nvalue = [15, 59]", fillcolor="#399de5be"] ;
223 -> 224 ;
225 [label="gini = 0.0\nsamples = 7\nvalue = [8, 0]", fillcolor="#e58139ff"] ;
224 -> 225 ;
226 [label="RECON_RX_RISK_SCORE_NBR <= 0.06\ngini = 0.19\nsamples = 45\nvalue = [7, 59]", fillcolor="#399de5e1"] ;
224 -> 226 ;
227 [label="SEX_CD_F <= 0.5\ngini = 0.09\nsamples = 43\nvalue = [3, 59]", fillcolor="#399de5f2"] ;
226 -> 227 ;
228 [label="gini = 0.0\nsamples = 24\nvalue = [0, 35]", fillcolor="#399de5ff"] ;
227 -> 228 ;
229 [label="gini = 0.2\nsamples = 19\nvalue = [3, 24]", fillcolor="#399de5df"] ;
227 -> 229 ;
230 [label="gini = 0.0\nsamples = 2\nvalue = [4, 0]", fillcolor="#e58139ff"] ;
226 -> 230 ;
231 [label="gini = 0.0\nsamples = 4\nvalue = [8, 0]", fillcolor="#e58139ff"] ;
223 -> 231 ;
232 [label="Decile_struggle_Med_lang_9.0 <= 0.5\ngini = 0.06\nsamples = 20\nvalue = [1, 29]", fillcolor="#399de5f6"] ;
204 -> 232 ;
233 [label="gini = 0.0\nsamples = 19\nvalue = [0, 29]", fillcolor="#399de5ff"] ;
232 -> 233 ;
234 [label="gini = 0.0\nsamples = 1\nvalue = [1, 0]", fillcolor="#e58139ff"] ;
232 -> 234 ;
235 [label="gini = 0.0\nsamples = 20\nvalue = [0, 25]", fillcolor="#399de5ff"] ;
203 -> 235 ;
236 [label="Num_person_household <= 0.09\ngini = 0.45\nsamples = 128\nvalue = [73, 139]", fillcolor="#399de579"] ;
202 -> 236 ;
237 [label="POT_VISIT_81_Q02 <= 0.02\ngini = 0.39\nsamples = 115\nvalue = [49, 139]", fillcolor="#399de5a5"] ;
236 -> 237 ;
238 [label="MCO_PROD_TYPE_CD_RPPO <= 0.5\ngini = 0.35\nsamples = 109\nvalue = [40, 139]", fillcolor="#399de5b6"] ;
237 -> 238 ;
239 [label="CON_VISIT_26_Q04 <= 0.01\ngini = 0.31\nsamples = 104\nvalue = [33, 139]", fillcolor="#399de5c2"] ;
238 -> 239 ;
240 [label="POT_VISIT_19_Q04 <= 0.03\ngini = 0.27\nsamples = 99\nvalue = [26, 139]", fillcolor="#399de5cf"] ;
239 -> 240 ;
241 [label="Education_level_6.0 <= 0.5\ngini = 0.23\nsamples = 97\nvalue = [21, 139]", fillcolor="#399de5d8"] ;
240 -> 241 ;
242 [label="CON_VISIT_26_Q03 <= 0.01\ngini = 0.16\nsamples = 92\nvalue = [13, 139]", fillcolor="#399de5e7"] ;
241 -> 242 ;
243 [label="gini = 0.14\nsamples = 91\nvalue = [11, 139]", fillcolor="#399de5eb"] ;
242 -> 243 ;
244 [label="gini = 0.0\nsamples = 1\nvalue = [2, 0]", fillcolor="#e58139ff"] ;
242 -> 244 ;
245 [label="gini = 0.0\nsamples = 5\nvalue = [8, 0]", fillcolor="#e58139ff"] ;
241 -> 245 ;
246 [label="gini = 0.0\nsamples = 2\nvalue = [5, 0]", fillcolor="#e58139ff"] ;
240 -> 246 ;
247 [label="gini = 0.0\nsamples = 5\nvalue = [7, 0]", fillcolor="#e58139ff"] ;
239 -> 247 ;
248 [label="gini = 0.0\nsamples = 5\nvalue = [7, 0]", fillcolor="#e58139ff"] ;
238 -> 248 ;
249 [label="gini = 0.0\nsamples = 6\nvalue = [9, 0]", fillcolor="#e58139ff"] ;
237 -> 249 ;
250 [label="gini = 0.0\nsamples = 13\nvalue = [24, 0]", fillcolor="#e58139ff"] ;
236 -> 250 ;
251 [label="RECON_MA_RISK_SCORE_NBR <= 0.05\ngini = 0.22\nsamples = 247\nvalue = [351, 50]", fillcolor="#e58139db"] ;
95 -> 251 ;
252 [label="gini = 0.0\nsamples = 131\nvalue = [218, 0]", fillcolor="#e58139ff"] ;
251 -> 252 ;
253 [label="Index_Health_ins_influence_3.0 <= 0.5\ngini = 0.4\nsamples = 116\nvalue = [133, 50]", fillcolor="#e581399f"] ;
251 -> 253 ;
254 [label="Population_density_centile_ST <= 0.05\ngini = 0.43\nsamples = 105\nvalue = [112, 50]", fillcolor="#e581398d"] ;
253 -> 254 ;
255 [label="RX_THER_50_YR2016 <= 0.03\ngini = 0.13\nsamples = 18\nvalue = [2, 26]", fillcolor="#399de5eb"] ;
254 -> 255 ;
256 [label="gini = 0.0\nsamples = 17\nvalue = [0, 26]", fillcolor="#399de5ff"] ;
255 -> 256 ;
257 [label="gini = 0.0\nsamples = 1\nvalue = [2, 0]", fillcolor="#e58139ff"] ;
255 -> 257 ;
258 [label="CON_VISIT_04_Q01 <= 0.01\ngini = 0.29\nsamples = 87\nvalue = [110, 24]", fillcolor="#e58139c7"] ;
254 -> 258 ;
259 [label="gini = 0.0\nsamples = 55\nvalue = [81, 0]", fillcolor="#e58139ff"] ;
258 -> 259 ;
260 [label="POT_VISIT_22_Q03 <= 0.0\ngini = 0.5\nsamples = 32\nvalue = [29, 24]", fillcolor="#e581392c"] ;
258 -> 260 ;
261 [label="OSTEO <= 0.5\ngini = 0.49\nsamples = 24\nvalue = [17, 24]", fillcolor="#399de54a"] ;
260 -> 261 ;
262 [label="gini = 0.0\nsamples = 11\nvalue = [17, 0]", fillcolor="#e58139ff"] ;
261 -> 262 ;
263 [label="gini = 0.0\nsamples = 13\nvalue = [0, 24]", fillcolor="#399de5ff"] ;
261 -> 263 ;
264 [label="gini = 0.0\nsamples = 8\nvalue = [12, 0]", fillcolor="#e58139ff"] ;
260 -> 264 ;
265 [label="gini = 0.0\nsamples = 11\nvalue = [21, 0]", fillcolor="#e58139ff"] ;
253 -> 265 ;
266 [label="POT_VISIT_22_Q02 <= 0.04\ngini = 0.48\nsamples = 605\nvalue = [382, 565]", fillcolor="#399de553"] ;
94 -> 266 ;
267 [label="POT_VISIT_12_Q04 <= 0.0\ngini = 0.47\nsamples = 588\nvalue = [355, 565]", fillcolor="#399de55f"] ;
266 -> 267 ;
268 [label="Decile_struggle_Med_lang_5.0 <= 0.5\ngini = 0.46\nsamples = 563\nvalue = [322, 565]", fillcolor="#399de56e"] ;
267 -> 268 ;
269 [label="Length_residence <= 0.28\ngini = 0.45\nsamples = 551\nvalue = [299, 565]", fillcolor="#399de578"] ;
268 -> 269 ;
270 [label="CON_VISIT_24_Q02 <= 0.0\ngini = 0.43\nsamples = 527\nvalue = [261, 565]", fillcolor="#399de589"] ;
269 -> 270 ;
271 [label="Est_Net_worth <= 0.11\ngini = 0.45\nsamples = 464\nvalue = [251, 471]", fillcolor="#399de577"] ;
270 -> 271 ;
272 [label="AGE <= 0.65\ngini = 0.37\nsamples = 302\nvalue = [119, 368]", fillcolor="#399de5ad"] ;
271 -> 272 ;
273 [label="gini = 0.0\nsamples = 14\nvalue = [23, 0]", fillcolor="#e58139ff"] ;
272 -> 273 ;
274 [label="Index_Health_ins_influence_1.0 <= 0.5\ngini = 0.33\nsamples = 288\nvalue = [96, 368]", fillcolor="#399de5bc"] ;
272 -> 274 ;
275 [label="POT_VISIT_11_Q03 <= 0.04\ngini = 0.31\nsamples = 282\nvalue = [86, 368]", fillcolor="#399de5c3"] ;
274 -> 275 ;
276 [label="Index_Health_ins_influence_3.0 <= 0.5\ngini = 0.28\nsamples = 275\nvalue = [74, 368]", fillcolor="#399de5cc"] ;
275 -> 276 ;
277 [label="gini = 0.23\nsamples = 256\nvalue = [55, 355]", fillcolor="#399de5d7"] ;
276 -> 277 ;
278 [label="gini = 0.48\nsamples = 19\nvalue = [19, 13]", fillcolor="#e5813951"] ;
276 -> 278 ;
279 [label="gini = 0.0\nsamples = 7\nvalue = [12, 0]", fillcolor="#e58139ff"] ;
275 -> 279 ;
280 [label="gini = 0.0\nsamples = 6\nvalue = [10, 0]", fillcolor="#e58139ff"] ;
274 -> 280 ;
281 [label="Est_Net_worth <= 0.53\ngini = 0.49\nsamples = 162\nvalue = [132, 103]", fillcolor="#e5813938"] ;
271 -> 281 ;
282 [label="gini = 0.0\nsamples = 64\nvalue = [95, 0]", fillcolor="#e58139ff"] ;
281 -> 282 ;
283 [label="CON_VISIT_19_Q04 <= 0.02\ngini = 0.39\nsamples = 98\nvalue = [37, 103]", fillcolor="#399de5a3"] ;
281 -> 283 ;
284 [label="CON_VISIT_19_Q03 <= 0.02\ngini = 0.34\nsamples = 94\nvalue = [29, 103]", fillcolor="#399de5b7"] ;
283 -> 284 ;
285 [label="CON_VISIT_04_Q02 <= 0.04\ngini = 0.29\nsamples = 89\nvalue = [22, 103]", fillcolor="#399de5c9"] ;
284 -> 285 ;
286 [label="gini = 0.38\nsamples = 66\nvalue = [22, 64]", fillcolor="#399de5a7"] ;
285 -> 286 ;
287 [label="gini = 0.0\nsamples = 23\nvalue = [0, 39]", fillcolor="#399de5ff"] ;
285 -> 287 ;
288 [label="gini = 0.0\nsamples = 5\nvalue = [7, 0]", fillcolor="#e58139ff"] ;
284 -> 288 ;
289 [label="gini = 0.0\nsamples = 4\nvalue = [8, 0]", fillcolor="#e58139ff"] ;
283 -> 289 ;
290 [label="Population_density_centile_ST <= 0.52\ngini = 0.17\nsamples = 63\nvalue = [10, 94]", fillcolor="#399de5e4"] ;
270 -> 290 ;
291 [label="gini = 0.0\nsamples = 6\nvalue = [9, 0]", fillcolor="#e58139ff"] ;
290 -> 291 ;
292 [label="STATIN_ELIG <= 0.5\ngini = 0.02\nsamples = 57\nvalue = [1, 94]", fillcolor="#399de5fc"] ;
290 -> 292 ;
293 [label="gini = 0.0\nsamples = 56\nvalue = [0, 94]", fillcolor="#399de5ff"] ;
292 -> 293 ;
294 [label="gini = 0.0\nsamples = 1\nvalue = [1, 0]", fillcolor="#e58139ff"] ;
292 -> 294 ;
295 [label="gini = 0.0\nsamples = 24\nvalue = [38, 0]", fillcolor="#e58139ff"] ;
269 -> 295 ;
296 [label="gini = 0.0\nsamples = 12\nvalue = [23, 0]", fillcolor="#e58139ff"] ;
268 -> 296 ;
297 [label="gini = 0.0\nsamples = 25\nvalue = [33, 0]", fillcolor="#e58139ff"] ;
267 -> 297 ;
298 [label="gini = 0.0\nsamples = 17\nvalue = [27, 0]", fillcolor="#e58139ff"] ;
266 -> 298 ;
299 [label="CON_VISIT_24_Q02 <= 0.01\ngini = 0.5\nsamples = 2434\nvalue = [2034, 1874]", fillcolor="#e5813914"] ;
7 -> 299 ;
300 [label="CON_VISIT_25_Q03 <= 0.02\ngini = 0.5\nsamples = 2370\nvalue = [1931, 1874]", fillcolor="#e5813908"] ;
299 -> 300 ;
301 [label="RX_THER_37_YR2016 <= 0.05\ngini = 0.5\nsamples = 2317\nvalue = [1859, 1874]", fillcolor="#399de502"] ;
300 -> 301 ;
302 [label="CON_VISIT_33_Q04 <= 0.11\ngini = 0.5\nsamples = 1976\nvalue = [1507, 1674]", fillcolor="#399de519"] ;
301 -> 302 ;
303 [label="AGE <= 0.83\ngini = 0.5\nsamples = 1939\nvalue = [1504, 1616]", fillcolor="#399de512"] ;
302 -> 303 ;
304 [label="MCO_HLVL_PLAN_CD_MA <= 0.5\ngini = 0.49\nsamples = 1199\nvalue = [1124, 802]", fillcolor="#e5813949"] ;
303 -> 304 ;
305 [label="POT_VISIT_11_Q03 <= 0.05\ngini = 0.49\nsamples = 1100\nvalue = [985, 786]", fillcolor="#e5813934"] ;
304 -> 305 ;
306 [label="CON_VISIT_27_Q02 <= 0.0\ngini = 0.47\nsamples = 836\nvalue = [848, 502]", fillcolor="#e5813968"] ;
305 -> 306 ;
307 [label="POT_VISIT_22_Q01 <= 0.04\ngini = 0.45\nsamples = 771\nvalue = [832, 425]", fillcolor="#e581397d"] ;
306 -> 307 ;
308 [label="CON_VISIT_04_Q02 <= 0.1\ngini = 0.42\nsamples = 687\nvalue = [776, 326]", fillcolor="#e5813994"] ;
307 -> 308 ;
309 [label="SEX_CD_M <= 0.5\ngini = 0.4\nsamples = 664\nvalue = [775, 293]", fillcolor="#e581399f"] ;
308 -> 309 ;
310 [label="RX_THER_42_YR2016 <= 0.02\ngini = 0.21\nsamples = 262\nvalue = [350, 46]", fillcolor="#e58139dd"] ;
309 -> 310 ;
311 [label="gini = 0.12\nsamples = 233\nvalue = [330, 23]", fillcolor="#e58139ed"] ;
310 -> 311 ;
312 [label="gini = 0.5\nsamples = 29\nvalue = [20, 23]", fillcolor="#399de521"] ;
310 -> 312 ;
313 [label="CON_VISIT_33_Q03 <= 0.01\ngini = 0.46\nsamples = 402\nvalue = [425, 247]", fillcolor="#e581396b"] ;
309 -> 313 ;
314 [label="gini = 0.49\nsamples = 351\nvalue = [335, 247]", fillcolor="#e5813943"] ;
313 -> 314 ;
315 [label="gini = 0.0\nsamples = 51\nvalue = [90, 0]", fillcolor="#e58139ff"] ;
313 -> 315 ;
316 [label="CON_VISIT_10_Q04 <= 0.01\ngini = 0.06\nsamples = 23\nvalue = [1, 33]", fillcolor="#399de5f7"] ;
308 -> 316 ;
317 [label="gini = 0.0\nsamples = 22\nvalue = [0, 33]", fillcolor="#399de5ff"] ;
316 -> 317 ;
318 [label="gini = 0.0\nsamples = 1\nvalue = [1, 0]", fillcolor="#e58139ff"] ;
316 -> 318 ;
319 [label="RX_THER_88_YR2016 <= 0.02\ngini = 0.46\nsamples = 84\nvalue = [56, 99]", fillcolor="#399de56f"] ;
307 -> 319 ;
320 [label="RES_COPD <= 0.5\ngini = 0.5\nsamples = 60\nvalue = [56, 58]", fillcolor="#399de509"] ;
319 -> 320 ;
321 [label="Pct_below_poverty_line <= 0.03\ngini = 0.41\nsamples = 41\nvalue = [52, 21]", fillcolor="#e5813998"] ;
320 -> 321 ;
322 [label="gini = 0.0\nsamples = 12\nvalue = [0, 21]", fillcolor="#399de5ff"] ;
321 -> 322 ;
323 [label="gini = 0.0\nsamples = 29\nvalue = [52, 0]", fillcolor="#e58139ff"] ;
321 -> 323 ;
324 [label="POT_VISIT_22_Q03 <= 0.02\ngini = 0.18\nsamples = 19\nvalue = [4, 37]", fillcolor="#399de5e3"] ;
320 -> 324 ;
325 [label="gini = 0.0\nsamples = 18\nvalue = [0, 37]", fillcolor="#399de5ff"] ;
324 -> 325 ;
326 [label="gini = 0.0\nsamples = 1\nvalue = [4, 0]", fillcolor="#e58139ff"] ;
324 -> 326 ;
327 [label="gini = 0.0\nsamples = 24\nvalue = [0, 41]", fillcolor="#399de5ff"] ;
319 -> 327 ;
328 [label="Population_density_centile_ST <= 0.67\ngini = 0.28\nsamples = 65\nvalue = [16, 77]", fillcolor="#399de5ca"] ;
306 -> 328 ;
329 [label="Home_value <= 0.03\ngini = 0.2\nsamples = 60\nvalue = [10, 77]", fillcolor="#399de5de"] ;
328 -> 329 ;
330 [label="gini = 0.0\nsamples = 5\nvalue = [6, 0]", fillcolor="#e58139ff"] ;
329 -> 330 ;
331 [label="POT_VISIT_81_Q03 <= 0.01\ngini = 0.09\nsamples = 55\nvalue = [4, 77]", fillcolor="#399de5f2"] ;
329 -> 331 ;
332 [label="RECON_RX_RISK_SCORE_NBR <= 0.04\ngini = 0.05\nsamples = 53\nvalue = [2, 77]", fillcolor="#399de5f8"] ;
331 -> 332 ;
333 [label="gini = 0.0\nsamples = 2\nvalue = [2, 0]", fillcolor="#e58139ff"] ;
332 -> 333 ;
334 [label="gini = 0.0\nsamples = 51\nvalue = [0, 77]", fillcolor="#399de5ff"] ;
332 -> 334 ;
335 [label="gini = 0.0\nsamples = 2\nvalue = [2, 0]", fillcolor="#e58139ff"] ;
331 -> 335 ;
336 [label="gini = 0.0\nsamples = 5\nvalue = [6, 0]", fillcolor="#e58139ff"] ;
328 -> 336 ;
337 [label="CON_VISIT_03_Q03 <= 0.05\ngini = 0.44\nsamples = 264\nvalue = [137, 284]", fillcolor="#399de584"] ;
305 -> 337 ;
338 [label="POT_VISIT_22_Q02 <= 0.02\ngini = 0.4\nsamples = 249\nvalue = [110, 284]", fillcolor="#399de59c"] ;
337 -> 338 ;
339 [label="Index_Health_ins_influence_0.0 <= 0.5\ngini = 0.35\nsamples = 230\nvalue = [85, 284]", fillcolor="#399de5b3"] ;
338 -> 339 ;
340 [label="PREDIABETES <= 0.5\ngini = 0.31\nsamples = 219\nvalue = [69, 284]", fillcolor="#399de5c1"] ;
339 -> 340 ;
341 [label="CON_VISIT_31_Q01 <= 0.02\ngini = 0.24\nsamples = 206\nvalue = [47, 284]", fillcolor="#399de5d5"] ;
340 -> 341 ;
342 [label="gini = 0.21\nsamples = 200\nvalue = [38, 284]", fillcolor="#399de5dd"] ;
341 -> 342 ;
343 [label="gini = 0.0\nsamples = 6\nvalue = [9, 0]", fillcolor="#e58139ff"] ;
341 -> 343 ;
344 [label="gini = 0.0\nsamples = 13\nvalue = [22, 0]", fillcolor="#e58139ff"] ;
340 -> 344 ;
345 [label="gini = 0.0\nsamples = 11\nvalue = [16, 0]", fillcolor="#e58139ff"] ;
339 -> 345 ;
346 [label="gini = 0.0\nsamples = 19\nvalue = [25, 0]", fillcolor="#e58139ff"] ;
338 -> 346 ;
347 [label="gini = 0.0\nsamples = 15\nvalue = [27, 0]", fillcolor="#e58139ff"] ;
337 -> 347 ;
348 [label="Decile_struggle_Med_lang_9.0 <= 0.5\ngini = 0.19\nsamples = 99\nvalue = [139, 16]", fillcolor="#e58139e2"] ;
304 -> 348 ;
349 [label="Decile_struggle_Med_lang_5.0 <= 0.5\ngini = 0.24\nsamples = 72\nvalue = [99, 16]", fillcolor="#e58139d6"] ;
348 -> 349 ;
350 [label="CV_CAD <= 0.5\ngini = 0.26\nsamples = 65\nvalue = [88, 16]", fillcolor="#e58139d1"] ;
349 -> 350 ;
351 [label="Est_BMI_decile_6.0 <= 0.5\ngini = 0.33\nsamples = 49\nvalue = [61, 16]", fillcolor="#e58139bc"] ;
350 -> 351 ;
352 [label="gini = 0.0\nsamples = 36\nvalue = [58, 0]", fillcolor="#e58139ff"] ;
351 -> 352 ;
353 [label="Online_User <= 0.5\ngini = 0.27\nsamples = 13\nvalue = [3, 16]", fillcolor="#399de5cf"] ;
351 -> 353 ;
354 [label="gini = 0.0\nsamples = 1\nvalue = [2, 0]", fillcolor="#e58139ff"] ;
353 -> 354 ;
355 [label="Pct_above_poverty_line <= 0.95\ngini = 0.11\nsamples = 12\nvalue = [1, 16]", fillcolor="#399de5ef"] ;
353 -> 355 ;
356 [label="gini = 0.0\nsamples = 11\nvalue = [0, 16]", fillcolor="#399de5ff"] ;
355 -> 356 ;
357 [label="gini = 0.0\nsamples = 1\nvalue = [1, 0]", fillcolor="#e58139ff"] ;
355 -> 357 ;
358 [label="gini = 0.0\nsamples = 16\nvalue = [27, 0]", fillcolor="#e58139ff"] ;
350 -> 358 ;
359 [label="gini = 0.0\nsamples = 7\nvalue = [11, 0]", fillcolor="#e58139ff"] ;
349 -> 359 ;
360 [label="gini = 0.0\nsamples = 27\nvalue = [40, 0]", fillcolor="#e58139ff"] ;
348 -> 360 ;
361 [label="RECON_RX_RISK_SCORE_NBR <= 0.06\ngini = 0.43\nsamples = 740\nvalue = [380, 814]", fillcolor="#399de588"] ;
303 -> 361 ;
362 [label="CON_VISIT_03_Q01 <= 0.1\ngini = 0.41\nsamples = 674\nvalue = [310, 786]", fillcolor="#399de59a"] ;
361 -> 362 ;
363 [label="Length_residence <= 0.01\ngini = 0.4\nsamples = 666\nvalue = [296, 786]", fillcolor="#399de59f"] ;
362 -> 363 ;
364 [label="gini = 0.0\nsamples = 7\nvalue = [13, 0]", fillcolor="#e58139ff"] ;
363 -> 364 ;
365 [label="CON_VISIT_07_Q04 <= 0.01\ngini = 0.39\nsamples = 659\nvalue = [283, 786]", fillcolor="#399de5a3"] ;
363 -> 365 ;
366 [label="CON_VISIT_04_Q04 <= 0.01\ngini = 0.38\nsamples = 652\nvalue = [269, 786]", fillcolor="#399de5a8"] ;
365 -> 366 ;
367 [label="Education_level_6.0 <= 0.5\ngini = 0.46\nsamples = 344\nvalue = [206, 364]", fillcolor="#399de56f"] ;
366 -> 367 ;
368 [label="ACE_PASS <= 0.5\ngini = 0.43\nsamples = 325\nvalue = [170, 364]", fillcolor="#399de588"] ;
367 -> 368 ;
369 [label="gini = 0.49\nsamples = 183\nvalue = [127, 178]", fillcolor="#399de549"] ;
368 -> 369 ;
370 [label="gini = 0.31\nsamples = 142\nvalue = [43, 186]", fillcolor="#399de5c4"] ;
368 -> 370 ;
371 [label="gini = 0.0\nsamples = 19\nvalue = [36, 0]", fillcolor="#e58139ff"] ;
367 -> 371 ;
372 [label="CON_VISIT_25_Q04 <= 0.01\ngini = 0.23\nsamples = 308\nvalue = [63, 422]", fillcolor="#399de5d9"] ;
366 -> 372 ;
373 [label="POT_VISIT_22_Q01 <= 0.02\ngini = 0.32\nsamples = 199\nvalue = [62, 243]", fillcolor="#399de5be"] ;
372 -> 373 ;
374 [label="gini = 0.29\nsamples = 193\nvalue = [53, 243]", fillcolor="#399de5c7"] ;
373 -> 374 ;
375 [label="gini = 0.0\nsamples = 6\nvalue = [9, 0]", fillcolor="#e58139ff"] ;
373 -> 375 ;
376 [label="CON_VISIT_33_Q04 <= 0.01\ngini = 0.01\nsamples = 109\nvalue = [1, 179]", fillcolor="#399de5fe"] ;
372 -> 376 ;
377 [label="gini = 0.02\nsamples = 56\nvalue = [1, 92]", fillcolor="#399de5fc"] ;
376 -> 377 ;
378 [label="gini = 0.0\nsamples = 53\nvalue = [0, 87]", fillcolor="#399de5ff"] ;
376 -> 378 ;
379 [label="gini = 0.0\nsamples = 7\nvalue = [14, 0]", fillcolor="#e58139ff"] ;
365 -> 379 ;
380 [label="gini = 0.0\nsamples = 8\nvalue = [14, 0]", fillcolor="#e58139ff"] ;
362 -> 380 ;
381 [label="RX_THER_42_YR2016 <= 0.02\ngini = 0.41\nsamples = 66\nvalue = [70, 28]", fillcolor="#e5813999"] ;
361 -> 381 ;
382 [label="gini = 0.0\nsamples = 45\nvalue = [67, 0]", fillcolor="#e58139ff"] ;
381 -> 382 ;
383 [label="Home_value <= 0.05\ngini = 0.17\nsamples = 21\nvalue = [3, 28]", fillcolor="#399de5e4"] ;
381 -> 383 ;
384 [label="gini = 0.0\nsamples = 2\nvalue = [3, 0]", fillcolor="#e58139ff"] ;
383 -> 384 ;
385 [label="gini = 0.0\nsamples = 19\nvalue = [0, 28]", fillcolor="#399de5ff"] ;
383 -> 385 ;
386 [label="POT_VISIT_11_Q03 <= 0.03\ngini = 0.09\nsamples = 37\nvalue = [3, 58]", fillcolor="#399de5f2"] ;
302 -> 386 ;
387 [label="gini = 0.0\nsamples = 1\nvalue = [1, 0]", fillcolor="#e58139ff"] ;
386 -> 387 ;
388 [label="RECON_RX_RISK_SCORE_NBR <= 0.06\ngini = 0.06\nsamples = 36\nvalue = [2, 58]", fillcolor="#399de5f6"] ;
386 -> 388 ;
389 [label="gini = 0.0\nsamples = 2\nvalue = [2, 0]", fillcolor="#e58139ff"] ;
388 -> 389 ;
390 [label="gini = 0.0\nsamples = 34\nvalue = [0, 58]", fillcolor="#399de5ff"] ;
388 -> 390 ;
391 [label="RX_THER_36_YR2016 <= 0.08\ngini = 0.46\nsamples = 341\nvalue = [352, 200]", fillcolor="#e581396e"] ;
301 -> 391 ;
392 [label="RX_THER_59_YR2016 <= 0.03\ngini = 0.32\nsamples = 194\nvalue = [249, 63]", fillcolor="#e58139be"] ;
391 -> 392 ;
393 [label="Est_income <= 0.14\ngini = 0.16\nsamples = 165\nvalue = [245, 24]", fillcolor="#e58139e6"] ;
392 -> 393 ;
394 [label="gini = 0.0\nsamples = 117\nvalue = [193, 0]", fillcolor="#e58139ff"] ;
393 -> 394 ;
395 [label="RX_THER_52_YR2016 <= 0.01\ngini = 0.43\nsamples = 48\nvalue = [52, 24]", fillcolor="#e5813989"] ;
393 -> 395 ;
396 [label="gini = 0.0\nsamples = 30\nvalue = [51, 0]", fillcolor="#e58139ff"] ;
395 -> 396 ;
397 [label="RECON_MA_RISK_SCORE_NBR <= 0.11\ngini = 0.08\nsamples = 18\nvalue = [1, 24]", fillcolor="#399de5f4"] ;
395 -> 397 ;
398 [label="gini = 0.0\nsamples = 17\nvalue = [0, 24]", fillcolor="#399de5ff"] ;
397 -> 398 ;
399 [label="gini = 0.0\nsamples = 1\nvalue = [1, 0]", fillcolor="#e58139ff"] ;
397 -> 399 ;
400 [label="Index_Health_ins_influence_3.0 <= 0.5\ngini = 0.17\nsamples = 29\nvalue = [4, 39]", fillcolor="#399de5e5"] ;
392 -> 400 ;
401 [label="gini = 0.0\nsamples = 3\nvalue = [3, 0]", fillcolor="#e58139ff"] ;
400 -> 401 ;
402 [label="Pct_above_poverty_line <= 0.96\ngini = 0.05\nsamples = 26\nvalue = [1, 39]", fillcolor="#399de5f8"] ;
400 -> 402 ;
403 [label="gini = 0.0\nsamples = 25\nvalue = [0, 39]", fillcolor="#399de5ff"] ;
402 -> 403 ;
404 [label="gini = 0.0\nsamples = 1\nvalue = [1, 0]", fillcolor="#e58139ff"] ;
402 -> 404 ;
405 [label="CON_VISIT_33_Q02 <= 0.01\ngini = 0.49\nsamples = 147\nvalue = [103, 137]", fillcolor="#399de53f"] ;
391 -> 405 ;
406 [label="MCO_PROD_TYPE_CD_LPPO <= 0.5\ngini = 0.47\nsamples = 134\nvalue = [83, 137]", fillcolor="#399de565"] ;
405 -> 406 ;
407 [label="RX_THER_94_YR2016 <= 0.17\ngini = 0.47\nsamples = 58\nvalue = [60, 38]", fillcolor="#e581395e"] ;
406 -> 407 ;
408 [label="gini = 0.0\nsamples = 34\nvalue = [56, 0]", fillcolor="#e58139ff"] ;
407 -> 408 ;
409 [label="MCO_PROD_TYPE_CD_PFFS <= 0.5\ngini = 0.17\nsamples = 24\nvalue = [4, 38]", fillcolor="#399de5e4"] ;
407 -> 409 ;
410 [label="gini = 0.0\nsamples = 2\nvalue = [4, 0]", fillcolor="#e58139ff"] ;
409 -> 410 ;
411 [label="gini = 0.0\nsamples = 22\nvalue = [0, 38]", fillcolor="#399de5ff"] ;
409 -> 411 ;
412 [label="CON_VISIT_04_Q03 <= 0.03\ngini = 0.31\nsamples = 76\nvalue = [23, 99]", fillcolor="#399de5c4"] ;
406 -> 412 ;
413 [label="Education_level_4.0 <= 0.5\ngini = 0.23\nsamples = 70\nvalue = [15, 99]", fillcolor="#399de5d8"] ;
412 -> 413 ;
414 [label="Pct_below_poverty_line <= 0.06\ngini = 0.15\nsamples = 66\nvalue = [9, 99]", fillcolor="#399de5e8"] ;
413 -> 414 ;
415 [label="gini = 0.0\nsamples = 1\nvalue = [3, 0]", fillcolor="#e58139ff"] ;
414 -> 415 ;
416 [label="CON_VISIT_32_Q04 <= 0.02\ngini = 0.11\nsamples = 65\nvalue = [6, 99]", fillcolor="#399de5f0"] ;
414 -> 416 ;
417 [label="POT_VISIT_11_Q01 <= 0.12\ngini = 0.09\nsamples = 64\nvalue = [5, 99]", fillcolor="#399de5f2"] ;
416 -> 417 ;
418 [label="CON_VISIT_26_Q02 <= 0.01\ngini = 0.06\nsamples = 63\nvalue = [3, 99]", fillcolor="#399de5f7"] ;
417 -> 418 ;
419 [label="gini = 0.04\nsamples = 62\nvalue = [2, 99]", fillcolor="#399de5fa"] ;
418 -> 419 ;
420 [label="gini = 0.0\nsamples = 1\nvalue = [1, 0]", fillcolor="#e58139ff"] ;
418 -> 420 ;
421 [label="gini = 0.0\nsamples = 1\nvalue = [2, 0]", fillcolor="#e58139ff"] ;
417 -> 421 ;
422 [label="gini = 0.0\nsamples = 1\nvalue = [1, 0]", fillcolor="#e58139ff"] ;
416 -> 422 ;
423 [label="gini = 0.0\nsamples = 4\nvalue = [6, 0]", fillcolor="#e58139ff"] ;
413 -> 423 ;
424 [label="gini = 0.0\nsamples = 6\nvalue = [8, 0]", fillcolor="#e58139ff"] ;
412 -> 424 ;
425 [label="gini = 0.0\nsamples = 13\nvalue = [20, 0]", fillcolor="#e58139ff"] ;
405 -> 425 ;
426 [label="gini = 0.0\nsamples = 53\nvalue = [72, 0]", fillcolor="#e58139ff"] ;
300 -> 426 ;
427 [label="gini = 0.0\nsamples = 64\nvalue = [103, 0]", fillcolor="#e58139ff"] ;
299 -> 427 ;
428 [label="POT_VISIT_12_Q04 <= 0.02\ngini = 0.39\nsamples = 643\nvalue = [800, 287]", fillcolor="#e58139a4"] ;
6 -> 428 ;
429 [label="RX_THER_43_YR2016 <= 0.07\ngini = 0.34\nsamples = 599\nvalue = [792, 219]", fillcolor="#e58139b8"] ;
428 -> 429 ;
430 [label="POT_VISIT_11_Q04 <= 0.02\ngini = 0.19\nsamples = 374\nvalue = [566, 66]", fillcolor="#e58139e1"] ;
429 -> 430 ;
431 [label="Decile_struggle_Med_lang_5.0 <= 0.5\ngini = 0.33\nsamples = 190\nvalue = [250, 66]", fillcolor="#e58139bc"] ;
430 -> 431 ;
432 [label="Decile_struggle_Med_lang_9.0 <= 0.5\ngini = 0.2\nsamples = 154\nvalue = [229, 29]", fillcolor="#e58139df"] ;
431 -> 432 ;
433 [label="gini = 0.0\nsamples = 114\nvalue = [198, 0]", fillcolor="#e58139ff"] ;
432 -> 433 ;
434 [label="Index_Health_ins_influence_3.0 <= 0.5\ngini = 0.5\nsamples = 40\nvalue = [31, 29]", fillcolor="#e5813910"] ;
432 -> 434 ;
435 [label="gini = 0.0\nsamples = 21\nvalue = [31, 0]", fillcolor="#e58139ff"] ;
434 -> 435 ;
436 [label="gini = 0.0\nsamples = 19\nvalue = [0, 29]", fillcolor="#399de5ff"] ;
434 -> 436 ;
437 [label="Education_level_4.0 <= 0.5\ngini = 0.46\nsamples = 36\nvalue = [21, 37]", fillcolor="#399de56e"] ;
431 -> 437 ;
438 [label="gini = 0.0\nsamples = 3\nvalue = [4, 0]", fillcolor="#e58139ff"] ;
437 -> 438 ;
439 [label="Home_value <= 0.09\ngini = 0.43\nsamples = 33\nvalue = [17, 37]", fillcolor="#399de58a"] ;
437 -> 439 ;
440 [label="gini = 0.0\nsamples = 10\nvalue = [17, 0]", fillcolor="#e58139ff"] ;
439 -> 440 ;
441 [label="gini = 0.0\nsamples = 23\nvalue = [0, 37]", fillcolor="#399de5ff"] ;
439 -> 441 ;
442 [label="gini = 0.0\nsamples = 184\nvalue = [316, 0]", fillcolor="#e58139ff"] ;
430 -> 442 ;
443 [label="POT_VISIT_22_Q02 <= 0.03\ngini = 0.48\nsamples = 225\nvalue = [226, 153]", fillcolor="#e5813952"] ;
429 -> 443 ;
444 [label="POT_VISIT_81_Q01 <= 0.02\ngini = 0.46\nsamples = 185\nvalue = [204, 116]", fillcolor="#e581396e"] ;
443 -> 444 ;
445 [label="CON_VISIT_21_Q04 <= 0.01\ngini = 0.49\nsamples = 159\nvalue = [151, 116]", fillcolor="#e581393b"] ;
444 -> 445 ;
446 [label="RX_THER_44_YR2016 <= 0.01\ngini = 0.5\nsamples = 136\nvalue = [110, 116]", fillcolor="#399de50d"] ;
445 -> 446 ;
447 [label="gini = 0.0\nsamples = 40\nvalue = [64, 0]", fillcolor="#e58139ff"] ;
446 -> 447 ;
448 [label="RX_THER_03_YR2016 <= 0.03\ngini = 0.41\nsamples = 96\nvalue = [46, 116]", fillcolor="#399de59a"] ;
446 -> 448 ;
449 [label="gini = 0.0\nsamples = 14\nvalue = [21, 0]", fillcolor="#e58139ff"] ;
448 -> 449 ;
450 [label="CON_VISIT_18_Q04 <= 0.01\ngini = 0.29\nsamples = 82\nvalue = [25, 116]", fillcolor="#399de5c8"] ;
448 -> 450 ;
451 [label="RX_THER_22_YR2016 <= 0.07\ngini = 0.25\nsamples = 80\nvalue = [20, 116]", fillcolor="#399de5d3"] ;
450 -> 451 ;
452 [label="RX_THER_66_YR2016 <= 0.08\ngini = 0.16\nsamples = 76\nvalue = [11, 116]", fillcolor="#399de5e7"] ;
451 -> 452 ;
453 [label="RES_FAIL <= 0.5\ngini = 0.12\nsamples = 74\nvalue = [8, 116]", fillcolor="#399de5ed"] ;
452 -> 453 ;
454 [label="CON_VISIT_31_Q03 <= 0.01\ngini = 0.09\nsamples = 73\nvalue = [6, 116]", fillcolor="#399de5f2"] ;
453 -> 454 ;
455 [label="PCP_ASSIGNMENT_ATTRIBUTED <= 0.5\ngini = 0.03\nsamples = 72\nvalue = [2, 116]", fillcolor="#399de5fb"] ;
454 -> 455 ;
456 [label="gini = 0.04\nsamples = 56\nvalue = [2, 90]", fillcolor="#399de5f9"] ;
455 -> 456 ;
457 [label="gini = 0.0\nsamples = 16\nvalue = [0, 26]", fillcolor="#399de5ff"] ;
455 -> 457 ;
458 [label="gini = 0.0\nsamples = 1\nvalue = [4, 0]", fillcolor="#e58139ff"] ;
454 -> 458 ;
459 [label="gini = 0.0\nsamples = 1\nvalue = [2, 0]", fillcolor="#e58139ff"] ;
453 -> 459 ;
460 [label="gini = 0.0\nsamples = 2\nvalue = [3, 0]", fillcolor="#e58139ff"] ;
452 -> 460 ;
461 [label="gini = 0.0\nsamples = 4\nvalue = [9, 0]", fillcolor="#e58139ff"] ;
451 -> 461 ;
462 [label="gini = 0.0\nsamples = 2\nvalue = [5, 0]", fillcolor="#e58139ff"] ;
450 -> 462 ;
463 [label="gini = 0.0\nsamples = 23\nvalue = [41, 0]", fillcolor="#e58139ff"] ;
445 -> 463 ;
464 [label="gini = 0.0\nsamples = 26\nvalue = [53, 0]", fillcolor="#e58139ff"] ;
444 -> 464 ;
465 [label="CON_VISIT_33_Q04 <= 0.01\ngini = 0.47\nsamples = 40\nvalue = [22, 37]", fillcolor="#399de567"] ;
443 -> 465 ;
466 [label="CON_VISIT_26_Q02 <= 0.01\ngini = 0.29\nsamples = 31\nvalue = [8, 37]", fillcolor="#399de5c8"] ;
465 -> 466 ;
467 [label="gini = 0.0\nsamples = 6\nvalue = [8, 0]", fillcolor="#e58139ff"] ;
466 -> 467 ;
468 [label="gini = 0.0\nsamples = 25\nvalue = [0, 37]", fillcolor="#399de5ff"] ;
466 -> 468 ;
469 [label="gini = 0.0\nsamples = 9\nvalue = [14, 0]", fillcolor="#e58139ff"] ;
465 -> 469 ;
470 [label="POT_VISIT_12_Q01 <= 0.01\ngini = 0.19\nsamples = 44\nvalue = [8, 68]", fillcolor="#399de5e1"] ;
428 -> 470 ;
471 [label="gini = 0.0\nsamples = 3\nvalue = [7, 0]", fillcolor="#e58139ff"] ;
470 -> 471 ;
472 [label="RECON_MA_RISK_SCORE_NBR <= 0.02\ngini = 0.03\nsamples = 41\nvalue = [1, 68]", fillcolor="#399de5fb"] ;
470 -> 472 ;
473 [label="gini = 0.0\nsamples = 1\nvalue = [1, 0]", fillcolor="#e58139ff"] ;
472 -> 473 ;
474 [label="gini = 0.0\nsamples = 40\nvalue = [0, 68]", fillcolor="#399de5ff"] ;
472 -> 474 ;
475 [label="gini = 0.0\nsamples = 84\nvalue = [142, 0]", fillcolor="#e58139ff"] ;
5 -> 475 ;
476 [label="CON_VISIT_17_Q03 <= 0.02\ngini = 0.48\nsamples = 3145\nvalue = [1965, 3023]", fillcolor="#399de559"] ;
4 -> 476 ;
477 [label="RX_THER_05_YR2016 <= 0.02\ngini = 0.48\nsamples = 3124\nvalue = [1928, 3023]", fillcolor="#399de55c"] ;
476 -> 477 ;
478 [label="RX_THER_30_YR2016 <= 0.12\ngini = 0.49\nsamples = 2395\nvalue = [1630, 2173]", fillcolor="#399de540"] ;
477 -> 478 ;
479 [label="RECON_MA_RISK_SCORE_NBR <= 0.02\ngini = 0.49\nsamples = 2359\nvalue = [1572, 2173]", fillcolor="#399de547"] ;
478 -> 479 ;
480 [label="gini = 0.0\nsamples = 63\nvalue = [107, 0]", fillcolor="#e58139ff"] ;
479 -> 480 ;
481 [label="CON_VISIT_32_Q04 <= 0.03\ngini = 0.48\nsamples = 2296\nvalue = [1465, 2173]", fillcolor="#399de553"] ;
479 -> 481 ;
482 [label="CON_VISIT_18_Q01 <= 0.01\ngini = 0.49\nsamples = 2175\nvalue = [1448, 2008]", fillcolor="#399de547"] ;
481 -> 482 ;
483 [label="RX_THER_62_YR2016 <= 0.0\ngini = 0.48\nsamples = 2113\nvalue = [1347, 2008]", fillcolor="#399de554"] ;
482 -> 483 ;
484 [label="RECON_MA_RISK_SCORE_NBR <= 0.05\ngini = 0.48\nsamples = 2082\nvalue = [1288, 2008]", fillcolor="#399de55b"] ;
483 -> 484 ;
485 [label="Population_density_centile_ST <= 0.29\ngini = 0.5\nsamples = 646\nvalue = [517, 502]", fillcolor="#e5813907"] ;
484 -> 485 ;
486 [label="gini = 0.0\nsamples = 79\nvalue = [126, 0]", fillcolor="#e58139ff"] ;
485 -> 486 ;
487 [label="RECON_RX_RISK_SCORE_NBR <= 0.02\ngini = 0.49\nsamples = 567\nvalue = [391, 502]", fillcolor="#399de538"] ;
485 -> 487 ;
488 [label="gini = 0.0\nsamples = 47\nvalue = [73, 0]", fillcolor="#e58139ff"] ;
487 -> 488 ;
489 [label="CON_VISIT_32_Q01 <= 0.0\ngini = 0.47\nsamples = 520\nvalue = [318, 502]", fillcolor="#399de55d"] ;
487 -> 489 ;
490 [label="RX_THER_37_YR2016 <= 0.01\ngini = 0.46\nsamples = 463\nvalue = [258, 475]", fillcolor="#399de574"] ;
489 -> 490 ;
491 [label="Population_density_centile_US <= 0.53\ngini = 0.41\nsamples = 421\nvalue = [193, 475]", fillcolor="#399de597"] ;
490 -> 491 ;
492 [label="CON_VISIT_24_Q01 <= 0.01\ngini = 0.23\nsamples = 201\nvalue = [43, 281]", fillcolor="#399de5d8"] ;
491 -> 492 ;
493 [label="CON_VISIT_32_Q04 <= 0.0\ngini = 0.2\nsamples = 197\nvalue = [36, 281]", fillcolor="#399de5de"] ;
492 -> 493 ;
494 [label="gini = 0.17\nsamples = 193\nvalue = [30, 281]", fillcolor="#399de5e4"] ;
493 -> 494 ;
495 [label="gini = 0.0\nsamples = 4\nvalue = [6, 0]", fillcolor="#e58139ff"] ;
493 -> 495 ;
496 [label="gini = 0.0\nsamples = 4\nvalue = [7, 0]", fillcolor="#e58139ff"] ;
492 -> 496 ;
497 [label="RX_THER_39_YR2016 <= 0.01\ngini = 0.49\nsamples = 220\nvalue = [150, 194]", fillcolor="#399de53a"] ;
491 -> 497 ;
498 [label="Est_BMI_decile_7.0 <= 0.5\ngini = 0.39\nsamples = 168\nvalue = [70, 194]", fillcolor="#399de5a3"] ;
497 -> 498 ;
499 [label="gini = 0.36\nsamples = 160\nvalue = [59, 194]", fillcolor="#399de5b1"] ;
498 -> 499 ;
500 [label="gini = 0.0\nsamples = 8\nvalue = [11, 0]", fillcolor="#e58139ff"] ;
498 -> 500 ;
501 [label="gini = 0.0\nsamples = 52\nvalue = [80, 0]", fillcolor="#e58139ff"] ;
497 -> 501 ;
502 [label="gini = 0.0\nsamples = 42\nvalue = [65, 0]", fillcolor="#e58139ff"] ;
490 -> 502 ;
503 [label="CON_VISIT_01_Q04 <= 0.15\ngini = 0.43\nsamples = 57\nvalue = [60, 27]", fillcolor="#e581398c"] ;
489 -> 503 ;
504 [label="gini = 0.0\nsamples = 38\nvalue = [60, 0]", fillcolor="#e58139ff"] ;
503 -> 504 ;
505 [label="gini = 0.0\nsamples = 19\nvalue = [0, 27]", fillcolor="#399de5ff"] ;
503 -> 505 ;
506 [label="POT_VISIT_20_Q02 <= 0.06\ngini = 0.45\nsamples = 1436\nvalue = [771, 1506]", fillcolor="#399de57c"] ;
484 -> 506 ;
507 [label="Index_Health_ins_influence_1.0 <= 0.5\ngini = 0.44\nsamples = 1426\nvalue = [755, 1506]", fillcolor="#399de57f"] ;
506 -> 507 ;
508 [label="RX_THER_88_YR2016 <= 0.02\ngini = 0.42\nsamples = 1290\nvalue = [618, 1409]", fillcolor="#399de58f"] ;
507 -> 508 ;
509 [label="CON_VISIT_08_Q01 <= 0.01\ngini = 0.42\nsamples = 1279\nvalue = [596, 1409]", fillcolor="#399de593"] ;
508 -> 509 ;
510 [label="POT_VISIT_21_Q01 <= 0.01\ngini = 0.41\nsamples = 1267\nvalue = [577, 1409]", fillcolor="#399de597"] ;
509 -> 510 ;
511 [label="POT_VISIT_21_Q03 <= 0.0\ngini = 0.4\nsamples = 1249\nvalue = [549, 1409]", fillcolor="#399de59c"] ;
510 -> 511 ;
512 [label="College <= 0.5\ngini = 0.39\nsamples = 1228\nvalue = [515, 1409]", fillcolor="#399de5a2"] ;
511 -> 512 ;
513 [label="gini = 0.38\nsamples = 1211\nvalue = [484, 1409]", fillcolor="#399de5a7"] ;
512 -> 513 ;
514 [label="gini = 0.0\nsamples = 17\nvalue = [31, 0]", fillcolor="#e58139ff"] ;
512 -> 514 ;
515 [label="gini = 0.0\nsamples = 21\nvalue = [34, 0]", fillcolor="#e58139ff"] ;
511 -> 515 ;
516 [label="gini = 0.0\nsamples = 18\nvalue = [28, 0]", fillcolor="#e58139ff"] ;
510 -> 516 ;
517 [label="gini = 0.0\nsamples = 12\nvalue = [19, 0]", fillcolor="#e58139ff"] ;
509 -> 517 ;
518 [label="gini = 0.0\nsamples = 11\nvalue = [22, 0]", fillcolor="#e58139ff"] ;
508 -> 518 ;
519 [label="Index_Health_ins_engage_9.0 <= 0.5\ngini = 0.49\nsamples = 136\nvalue = [137, 97]", fillcolor="#e581394a"] ;
507 -> 519 ;
520 [label="CON_VISIT_32_Q01 <= 0.0\ngini = 0.42\nsamples = 114\nvalue = [133, 57]", fillcolor="#e5813992"] ;
519 -> 520 ;
521 [label="gini = 0.0\nsamples = 60\nvalue = [105, 0]", fillcolor="#e58139ff"] ;
520 -> 521 ;
522 [label="RECON_MA_RISK_SCORE_NBR <= 0.08\ngini = 0.44\nsamples = 54\nvalue = [28, 57]", fillcolor="#399de582"] ;
520 -> 522 ;
523 [label="RX_THER_49_YR2016 <= 0.01\ngini = 0.29\nsamples = 44\nvalue = [12, 57]", fillcolor="#399de5c9"] ;
522 -> 523 ;
524 [label="Est_Net_worth <= 0.47\ngini = 0.19\nsamples = 42\nvalue = [7, 57]", fillcolor="#399de5e0"] ;
523 -> 524 ;
525 [label="gini = 0.07\nsamples = 40\nvalue = [2, 57]", fillcolor="#399de5f6"] ;
524 -> 525 ;
526 [label="gini = 0.0\nsamples = 2\nvalue = [5, 0]", fillcolor="#e58139ff"] ;
524 -> 526 ;
527 [label="gini = 0.0\nsamples = 2\nvalue = [5, 0]", fillcolor="#e58139ff"] ;
523 -> 527 ;
528 [label="gini = 0.0\nsamples = 10\nvalue = [16, 0]", fillcolor="#e58139ff"] ;
522 -> 528 ;
529 [label="CON_VISIT_33_Q04 <= 0.01\ngini = 0.17\nsamples = 22\nvalue = [4, 40]", fillcolor="#399de5e6"] ;
519 -> 529 ;
530 [label="gini = 0.0\nsamples = 1\nvalue = [4, 0]", fillcolor="#e58139ff"] ;
529 -> 530 ;
531 [label="gini = 0.0\nsamples = 21\nvalue = [0, 40]", fillcolor="#399de5ff"] ;
529 -> 531 ;
532 [label="gini = 0.0\nsamples = 10\nvalue = [16, 0]", fillcolor="#e58139ff"] ;
506 -> 532 ;
533 [label="gini = 0.0\nsamples = 31\nvalue = [59, 0]", fillcolor="#e58139ff"] ;
483 -> 533 ;
534 [label="gini = 0.0\nsamples = 62\nvalue = [101, 0]", fillcolor="#e58139ff"] ;
482 -> 534 ;
535 [label="RX_THER_39_YR2016 <= 0.1\ngini = 0.17\nsamples = 121\nvalue = [17, 165]", fillcolor="#399de5e5"] ;
481 -> 535 ;
536 [label="CON_VISIT_09_Q01 <= 0.02\ngini = 0.14\nsamples = 118\nvalue = [13, 165]", fillcolor="#399de5eb"] ;
535 -> 536 ;
537 [label="Num_person_household <= 0.03\ngini = 0.11\nsamples = 115\nvalue = [10, 165]", fillcolor="#399de5f0"] ;
536 -> 537 ;
538 [label="POT_VISIT_23_Q04 <= 0.09\ngini = 0.07\nsamples = 113\nvalue = [6, 165]", fillcolor="#399de5f6"] ;
537 -> 538 ;
539 [label="Population_density_centile_ST <= 0.34\ngini = 0.01\nsamples = 111\nvalue = [1, 165]", fillcolor="#399de5fd"] ;
538 -> 539 ;
540 [label="gini = 0.0\nsamples = 1\nvalue = [1, 0]", fillcolor="#e58139ff"] ;
539 -> 540 ;
541 [label="gini = 0.0\nsamples = 110\nvalue = [0, 165]", fillcolor="#399de5ff"] ;
539 -> 541 ;
542 [label="gini = 0.0\nsamples = 2\nvalue = [5, 0]", fillcolor="#e58139ff"] ;
538 -> 542 ;
543 [label="gini = 0.0\nsamples = 2\nvalue = [4, 0]", fillcolor="#e58139ff"] ;
537 -> 543 ;
544 [label="gini = 0.0\nsamples = 3\nvalue = [3, 0]", fillcolor="#e58139ff"] ;
536 -> 544 ;
545 [label="gini = 0.0\nsamples = 3\nvalue = [4, 0]", fillcolor="#e58139ff"] ;
535 -> 545 ;
546 [label="gini = 0.0\nsamples = 36\nvalue = [58, 0]", fillcolor="#e58139ff"] ;
478 -> 546 ;
547 [label="CON_VISIT_04_Q02 <= 0.04\ngini = 0.38\nsamples = 729\nvalue = [298, 850]", fillcolor="#399de5a6"] ;
477 -> 547 ;
548 [label="RX_THER_50_YR2016 <= 0.01\ngini = 0.37\nsamples = 715\nvalue = [283, 850]", fillcolor="#399de5aa"] ;
547 -> 548 ;
549 [label="CV_CAD <= 0.5\ngini = 0.33\nsamples = 679\nvalue = [228, 850]", fillcolor="#399de5bb"] ;
548 -> 549 ;
550 [label="Index_Health_ins_engage_3.0 <= 0.5\ngini = 0.45\nsamples = 284\nvalue = [150, 296]", fillcolor="#399de57e"] ;
549 -> 550 ;
551 [label="RECON_MA_RISK_SCORE_NBR <= 0.05\ngini = 0.47\nsamples = 128\nvalue = [122, 75]", fillcolor="#e5813962"] ;
550 -> 551 ;
552 [label="POT_VISIT_22_Q01 <= 0.0\ngini = 0.48\nsamples = 86\nvalue = [52, 75]", fillcolor="#399de54e"] ;
551 -> 552 ;
553 [label="CON_VISIT_05_Q01 <= 0.05\ngini = 0.38\nsamples = 69\nvalue = [25, 75]", fillcolor="#399de5aa"] ;
552 -> 553 ;
554 [label="POT_VISIT_22_Q02 <= 0.01\ngini = 0.5\nsamples = 39\nvalue = [25, 30]", fillcolor="#399de52a"] ;
553 -> 554 ;
555 [label="gini = 0.0\nsamples = 13\nvalue = [18, 0]", fillcolor="#e58139ff"] ;
554 -> 555 ;
556 [label="RECON_MA_RISK_SCORE_NBR <= 0.05\ngini = 0.31\nsamples = 26\nvalue = [7, 30]", fillcolor="#399de5c4"] ;
554 -> 556 ;
557 [label="gini = 0.0\nsamples = 4\nvalue = [6, 0]", fillcolor="#e58139ff"] ;
556 -> 557 ;
558 [label="CON_VISIT_33_Q04 <= 0.02\ngini = 0.06\nsamples = 22\nvalue = [1, 30]", fillcolor="#399de5f6"] ;
556 -> 558 ;
559 [label="gini = 0.0\nsamples = 21\nvalue = [0, 30]", fillcolor="#399de5ff"] ;
558 -> 559 ;
560 [label="gini = 0.0\nsamples = 1\nvalue = [1, 0]", fillcolor="#e58139ff"] ;
558 -> 560 ;
561 [label="gini = 0.0\nsamples = 30\nvalue = [0, 45]", fillcolor="#399de5ff"] ;
553 -> 561 ;
562 [label="gini = 0.0\nsamples = 17\nvalue = [27, 0]", fillcolor="#e58139ff"] ;
552 -> 562 ;
563 [label="gini = 0.0\nsamples = 42\nvalue = [70, 0]", fillcolor="#e58139ff"] ;
551 -> 563 ;
564 [label="POT_VISIT_11_Q03 <= 0.03\ngini = 0.2\nsamples = 156\nvalue = [28, 221]", fillcolor="#399de5df"] ;
550 -> 564 ;
565 [label="AGE <= 0.69\ngini = 0.1\nsamples = 146\nvalue = [13, 221]", fillcolor="#399de5f0"] ;
564 -> 565 ;
566 [label="ORIG_REAS_ENTITLE_CD_0.0 <= 0.5\ngini = 0.4\nsamples = 22\nvalue = [10, 26]", fillcolor="#399de59d"] ;
565 -> 566 ;
567 [label="gini = 0.0\nsamples = 16\nvalue = [0, 26]", fillcolor="#399de5ff"] ;
566 -> 567 ;
568 [label="gini = 0.0\nsamples = 6\nvalue = [10, 0]", fillcolor="#e58139ff"] ;
566 -> 568 ;
569 [label="RECON_RX_RISK_SCORE_NBR <= 0.04\ngini = 0.03\nsamples = 124\nvalue = [3, 195]", fillcolor="#399de5fb"] ;
565 -> 569 ;
570 [label="gini = 0.0\nsamples = 2\nvalue = [2, 0]", fillcolor="#e58139ff"] ;
569 -> 570 ;
571 [label="CV_HDZ <= 0.5\ngini = 0.01\nsamples = 122\nvalue = [1, 195]", fillcolor="#399de5fe"] ;
569 -> 571 ;
572 [label="CON_VISIT_04_Q01 <= 0.02\ngini = 0.03\nsamples = 35\nvalue = [1, 58]", fillcolor="#399de5fb"] ;
571 -> 572 ;
573 [label="gini = 0.0\nsamples = 34\nvalue = [0, 58]", fillcolor="#399de5ff"] ;
572 -> 573 ;
574 [label="gini = 0.0\nsamples = 1\nvalue = [1, 0]", fillcolor="#e58139ff"] ;
572 -> 574 ;
575 [label="gini = 0.0\nsamples = 87\nvalue = [0, 137]", fillcolor="#399de5ff"] ;
571 -> 575 ;
576 [label="gini = 0.0\nsamples = 10\nvalue = [15, 0]", fillcolor="#e58139ff"] ;
564 -> 576 ;
577 [label="Est_BMI_decile_8.0 <= 0.5\ngini = 0.22\nsamples = 395\nvalue = [78, 554]", fillcolor="#399de5db"] ;
549 -> 577 ;
578 [label="RX_THER_44_YR2016 <= 0.15\ngini = 0.2\nsamples = 390\nvalue = [69, 554]", fillcolor="#399de5df"] ;
577 -> 578 ;
579 [label="CON_VISIT_04_Q02 <= 0.01\ngini = 0.19\nsamples = 388\nvalue = [66, 554]", fillcolor="#399de5e1"] ;
578 -> 579 ;
580 [label="PREDIABETES <= 0.5\ngini = 0.15\nsamples = 360\nvalue = [48, 526]", fillcolor="#399de5e8"] ;
579 -> 580 ;
581 [label="CON_VISIT_31_Q04 <= 0.03\ngini = 0.13\nsamples = 355\nvalue = [41, 526]", fillcolor="#399de5eb"] ;
580 -> 581 ;
582 [label="CON_VISIT_08_Q01 <= 0.0\ngini = 0.12\nsamples = 351\nvalue = [36, 526]", fillcolor="#399de5ee"] ;
581 -> 582 ;
583 [label="POT_VISIT_11_Q03 <= 0.1\ngini = 0.11\nsamples = 349\nvalue = [34, 526]", fillcolor="#399de5ef"] ;
582 -> 583 ;
584 [label="RX_THER_56_YR2016 <= 0.22\ngini = 0.11\nsamples = 347\nvalue = [31, 526]", fillcolor="#399de5f0"] ;
583 -> 584 ;
585 [label="CON_VISIT_19_Q02 <= 0.06\ngini = 0.1\nsamples = 345\nvalue = [29, 526]", fillcolor="#399de5f1"] ;
584 -> 585 ;
586 [label="CON_VISIT_21_Q03 <= 0.08\ngini = 0.09\nsamples = 342\nvalue = [25, 526]", fillcolor="#399de5f3"] ;
585 -> 586 ;
587 [label="gini = 0.08\nsamples = 340\nvalue = [22, 526]", fillcolor="#399de5f4"] ;
586 -> 587 ;
588 [label="gini = 0.0\nsamples = 2\nvalue = [3, 0]", fillcolor="#e58139ff"] ;
586 -> 588 ;
589 [label="gini = 0.0\nsamples = 3\nvalue = [4, 0]", fillcolor="#e58139ff"] ;
585 -> 589 ;
590 [label="gini = 0.0\nsamples = 2\nvalue = [2, 0]", fillcolor="#e58139ff"] ;
584 -> 590 ;
591 [label="gini = 0.0\nsamples = 2\nvalue = [3, 0]", fillcolor="#e58139ff"] ;
583 -> 591 ;
592 [label="gini = 0.0\nsamples = 2\nvalue = [2, 0]", fillcolor="#e58139ff"] ;
582 -> 592 ;
593 [label="gini = 0.0\nsamples = 4\nvalue = [5, 0]", fillcolor="#e58139ff"] ;
581 -> 593 ;
594 [label="gini = 0.0\nsamples = 5\nvalue = [7, 0]", fillcolor="#e58139ff"] ;
580 -> 594 ;
595 [label="CON_VISIT_33_Q03 <= 0.01\ngini = 0.48\nsamples = 28\nvalue = [18, 28]", fillcolor="#399de55b"] ;
579 -> 595 ;
596 [label="gini = 0.0\nsamples = 6\nvalue = [14, 0]", fillcolor="#e58139ff"] ;
595 -> 596 ;
597 [label="POT_VISIT_11_Q02 <= 0.09\ngini = 0.22\nsamples = 22\nvalue = [4, 28]", fillcolor="#399de5db"] ;
595 -> 597 ;
598 [label="gini = 0.0\nsamples = 3\nvalue = [4, 0]", fillcolor="#e58139ff"] ;
597 -> 598 ;
599 [label="gini = 0.0\nsamples = 19\nvalue = [0, 28]", fillcolor="#399de5ff"] ;
597 -> 599 ;
600 [label="gini = 0.0\nsamples = 2\nvalue = [3, 0]", fillcolor="#e58139ff"] ;
578 -> 600 ;
601 [label="gini = 0.0\nsamples = 5\nvalue = [9, 0]", fillcolor="#e58139ff"] ;
577 -> 601 ;
602 [label="gini = 0.0\nsamples = 36\nvalue = [55, 0]", fillcolor="#e58139ff"] ;
548 -> 602 ;
603 [label="gini = 0.0\nsamples = 14\nvalue = [15, 0]", fillcolor="#e58139ff"] ;
547 -> 603 ;
604 [label="gini = 0.0\nsamples = 21\nvalue = [37, 0]", fillcolor="#e58139ff"] ;
476 -> 604 ;
605 [label="LIS_Y <= 0.5\ngini = 0.5\nsamples = 2994\nvalue = [2245, 2438]", fillcolor="#399de514"] ;
3 -> 605 ;
606 [label="AGE <= 0.66\ngini = 0.5\nsamples = 2890\nvalue = [2083, 2428]", fillcolor="#399de524"] ;
605 -> 606 ;
607 [label="gini = 0.0\nsamples = 71\nvalue = [120, 0]", fillcolor="#e58139ff"] ;
606 -> 607 ;
608 [label="CON_VISIT_30_Q01 <= 0.01\ngini = 0.49\nsamples = 2819\nvalue = [1963, 2428]", fillcolor="#399de531"] ;
606 -> 608 ;
609 [label="RX_THER_34_YR2016 <= 0.19\ngini = 0.5\nsamples = 2709\nvalue = [1929, 2286]", fillcolor="#399de528"] ;
608 -> 609 ;
610 [label="Length_residence <= 0.02\ngini = 0.49\nsamples = 2651\nvalue = [1829, 2286]", fillcolor="#399de533"] ;
609 -> 610 ;
611 [label="CON_VISIT_32_Q01 <= 0.0\ngini = 0.33\nsamples = 453\nvalue = [151, 565]", fillcolor="#399de5bb"] ;
610 -> 611 ;
612 [label="Decile_struggle_Med_lang_7.0 <= 0.5\ngini = 0.28\nsamples = 435\nvalue = [117, 565]", fillcolor="#399de5ca"] ;
611 -> 612 ;
613 [label="RX_THER_33_YR2016 <= 0.16\ngini = 0.26\nsamples = 423\nvalue = [101, 565]", fillcolor="#399de5d1"] ;
612 -> 613 ;
614 [label="RX_THER_94_YR2016 <= 0.02\ngini = 0.25\nsamples = 419\nvalue = [96, 565]", fillcolor="#399de5d4"] ;
613 -> 614 ;
615 [label="Est_BMI_decile_8.0 <= 0.5\ngini = 0.23\nsamples = 414\nvalue = [87, 565]", fillcolor="#399de5d8"] ;
614 -> 615 ;
616 [label="CON_VISIT_11_Q04 <= 0.03\ngini = 0.22\nsamples = 409\nvalue = [81, 565]", fillcolor="#399de5da"] ;
615 -> 616 ;
617 [label="RX_THER_50_YR2016 <= 0.01\ngini = 0.21\nsamples = 408\nvalue = [78, 565]", fillcolor="#399de5dc"] ;
616 -> 617 ;
618 [label="CON_VISIT_25_Q03 <= 0.01\ngini = 0.2\nsamples = 406\nvalue = [73, 565]", fillcolor="#399de5de"] ;
617 -> 618 ;
619 [label="CON_VISIT_19_Q03 <= 0.07\ngini = 0.19\nsamples = 403\nvalue = [67, 565]", fillcolor="#399de5e1"] ;
618 -> 619 ;
620 [label="Decile_struggle_Med_lang_1.0 <= 0.5\ngini = 0.18\nsamples = 401\nvalue = [63, 565]", fillcolor="#399de5e3"] ;
619 -> 620 ;
621 [label="CON_VISIT_10_Q02 <= 0.02\ngini = 0.17\nsamples = 399\nvalue = [59, 565]", fillcolor="#399de5e4"] ;
620 -> 621 ;
622 [label="gini = 0.15\nsamples = 395\nvalue = [52, 565]", fillcolor="#399de5e8"] ;
621 -> 622 ;
623 [label="gini = 0.0\nsamples = 4\nvalue = [7, 0]", fillcolor="#e58139ff"] ;
621 -> 623 ;
624 [label="gini = 0.0\nsamples = 2\nvalue = [4, 0]", fillcolor="#e58139ff"] ;
620 -> 624 ;
625 [label="gini = 0.0\nsamples = 2\nvalue = [4, 0]", fillcolor="#e58139ff"] ;
619 -> 625 ;
626 [label="gini = 0.0\nsamples = 3\nvalue = [6, 0]", fillcolor="#e58139ff"] ;
618 -> 626 ;
627 [label="gini = 0.0\nsamples = 2\nvalue = [5, 0]", fillcolor="#e58139ff"] ;
617 -> 627 ;
628 [label="gini = 0.0\nsamples = 1\nvalue = [3, 0]", fillcolor="#e58139ff"] ;
616 -> 628 ;
629 [label="gini = 0.0\nsamples = 5\nvalue = [6, 0]", fillcolor="#e58139ff"] ;
615 -> 629 ;
630 [label="gini = 0.0\nsamples = 5\nvalue = [9, 0]", fillcolor="#e58139ff"] ;
614 -> 630 ;
631 [label="gini = 0.0\nsamples = 4\nvalue = [5, 0]", fillcolor="#e58139ff"] ;
613 -> 631 ;
632 [label="gini = 0.0\nsamples = 12\nvalue = [16, 0]", fillcolor="#e58139ff"] ;
612 -> 632 ;
633 [label="gini = 0.0\nsamples = 18\nvalue = [34, 0]", fillcolor="#e58139ff"] ;
611 -> 633 ;
634 [label="RECON_MA_RISK_SCORE_NBR <= 0.04\ngini = 0.5\nsamples = 2198\nvalue = [1678, 1721]", fillcolor="#399de506"] ;
610 -> 634 ;
635 [label="RECON_MA_RISK_SCORE_NBR <= 0.03\ngini = 0.35\nsamples = 259\nvalue = [316, 91]", fillcolor="#e58139b6"] ;
634 -> 635 ;
636 [label="Index_Health_ins_engage_2.0 <= 0.5\ngini = 0.5\nsamples = 102\nvalue = [86, 74]", fillcolor="#e5813924"] ;
635 -> 636 ;
637 [label="RX_THER_22_YR2016 <= 0.01\ngini = 0.42\nsamples = 71\nvalue = [76, 32]", fillcolor="#e5813994"] ;
636 -> 637 ;
638 [label="gini = 0.0\nsamples = 45\nvalue = [68, 0]", fillcolor="#e58139ff"] ;
637 -> 638 ;
639 [label="CON_VISIT_04_Q03 <= 0.01\ngini = 0.32\nsamples = 26\nvalue = [8, 32]", fillcolor="#399de5bf"] ;
637 -> 639 ;
640 [label="gini = 0.0\nsamples = 6\nvalue = [8, 0]", fillcolor="#e58139ff"] ;
639 -> 640 ;
641 [label="gini = 0.0\nsamples = 20\nvalue = [0, 32]", fillcolor="#399de5ff"] ;
639 -> 641 ;
642 [label="PREDIABETES <= 0.5\ngini = 0.31\nsamples = 31\nvalue = [10, 42]", fillcolor="#399de5c2"] ;
636 -> 642 ;
643 [label="Est_BMI_decile_7.0 <= 0.5\ngini = 0.22\nsamples = 28\nvalue = [6, 42]", fillcolor="#399de5db"] ;
642 -> 643 ;
644 [label="gini = 0.0\nsamples = 4\nvalue = [6, 0]", fillcolor="#e58139ff"] ;
643 -> 644 ;
645 [label="gini = 0.0\nsamples = 24\nvalue = [0, 42]", fillcolor="#399de5ff"] ;
643 -> 645 ;
646 [label="gini = 0.0\nsamples = 3\nvalue = [4, 0]", fillcolor="#e58139ff"] ;
642 -> 646 ;
647 [label="CV_PVD <= 0.5\ngini = 0.13\nsamples = 157\nvalue = [230, 17]", fillcolor="#e58139ec"] ;
635 -> 647 ;
648 [label="gini = 0.0\nsamples = 145\nvalue = [229, 0]", fillcolor="#e58139ff"] ;
647 -> 648 ;
649 [label="SEX_CD_F <= 0.5\ngini = 0.1\nsamples = 12\nvalue = [1, 17]", fillcolor="#399de5f0"] ;
647 -> 649 ;
650 [label="gini = 0.0\nsamples = 1\nvalue = [1, 0]", fillcolor="#e58139ff"] ;
649 -> 650 ;
651 [label="gini = 0.0\nsamples = 11\nvalue = [0, 17]", fillcolor="#399de5ff"] ;
649 -> 651 ;
652 [label="Length_residence <= 0.04\ngini = 0.5\nsamples = 1939\nvalue = [1362, 1630]", fillcolor="#399de52a"] ;
634 -> 652 ;
653 [label="gini = 0.0\nsamples = 70\nvalue = [105, 0]", fillcolor="#e58139ff"] ;
652 -> 653 ;
654 [label="CON_VISIT_21_Q04 <= 0.01\ngini = 0.49\nsamples = 1869\nvalue = [1257, 1630]", fillcolor="#399de53a"] ;
652 -> 654 ;
655 [label="CON_VISIT_06_Q01 <= 0.02\ngini = 0.48\nsamples = 1577\nvalue = [988, 1437]", fillcolor="#399de550"] ;
654 -> 655 ;
656 [label="RX_THER_50_YR2016 <= 0.04\ngini = 0.48\nsamples = 1543\nvalue = [939, 1437]", fillcolor="#399de558"] ;
655 -> 656 ;
657 [label="CON_VISIT_21_Q02 <= 0.01\ngini = 0.48\nsamples = 1527\nvalue = [919, 1437]", fillcolor="#399de55c"] ;
656 -> 657 ;
658 [label="POT_VISIT_12_Q04 <= 0.02\ngini = 0.47\nsamples = 1466\nvalue = [836, 1415]", fillcolor="#399de568"] ;
657 -> 658 ;
659 [label="CON_VISIT_24_Q01 <= 0.01\ngini = 0.46\nsamples = 1448\nvalue = [808, 1415]", fillcolor="#399de56d"] ;
658 -> 659 ;
660 [label="RX_THER_62_YR2016 <= 0.0\ngini = 0.45\nsamples = 1372\nvalue = [721, 1377]", fillcolor="#399de579"] ;
659 -> 660 ;
661 [label="RX_THER_42_YR2016 <= 0.05\ngini = 0.44\nsamples = 1349\nvalue = [686, 1377]", fillcolor="#399de580"] ;
660 -> 661 ;
662 [label="RX_THER_82_YR2016 <= 0.07\ngini = 0.46\nsamples = 1224\nvalue = [674, 1194]", fillcolor="#399de56f"] ;
661 -> 662 ;
663 [label="gini = 0.46\nsamples = 1208\nvalue = [646, 1194]", fillcolor="#399de575"] ;
662 -> 663 ;
664 [label="gini = 0.0\nsamples = 16\nvalue = [28, 0]", fillcolor="#e58139ff"] ;
662 -> 664 ;
665 [label="CON_VISIT_32_Q04 <= 0.0\ngini = 0.12\nsamples = 125\nvalue = [12, 183]", fillcolor="#399de5ee"] ;
661 -> 665 ;
666 [label="gini = 0.1\nsamples = 124\nvalue = [10, 183]", fillcolor="#399de5f1"] ;
665 -> 666 ;
667 [label="gini = 0.0\nsamples = 1\nvalue = [2, 0]", fillcolor="#e58139ff"] ;
665 -> 667 ;
668 [label="gini = 0.0\nsamples = 23\nvalue = [35, 0]", fillcolor="#e58139ff"] ;
660 -> 668 ;
669 [label="CON_VISIT_21_Q02 <= 0.0\ngini = 0.42\nsamples = 76\nvalue = [87, 38]", fillcolor="#e5813990"] ;
659 -> 669 ;
670 [label="gini = 0.0\nsamples = 50\nvalue = [81, 0]", fillcolor="#e58139ff"] ;
669 -> 670 ;
671 [label="POT_VISIT_22_Q03 <= 0.01\ngini = 0.24\nsamples = 26\nvalue = [6, 38]", fillcolor="#399de5d7"] ;
669 -> 671 ;
672 [label="gini = 0.0\nsamples = 3\nvalue = [4, 0]", fillcolor="#e58139ff"] ;
671 -> 672 ;
673 [label="Index_Health_ins_influence_3.0 <= 0.5\ngini = 0.09\nsamples = 23\nvalue = [2, 38]", fillcolor="#399de5f2"] ;
671 -> 673 ;
674 [label="gini = 0.05\nsamples = 22\nvalue = [1, 38]", fillcolor="#399de5f8"] ;
673 -> 674 ;
675 [label="gini = 0.0\nsamples = 1\nvalue = [1, 0]", fillcolor="#e58139ff"] ;
673 -> 675 ;
676 [label="gini = 0.0\nsamples = 18\nvalue = [28, 0]", fillcolor="#e58139ff"] ;
658 -> 676 ;
677 [label="RX_THER_39_YR2016 <= 0.01\ngini = 0.33\nsamples = 61\nvalue = [83, 22]", fillcolor="#e58139bb"] ;
657 -> 677 ;
678 [label="CON_VISIT_21_Q02 <= 0.08\ngini = 0.46\nsamples = 36\nvalue = [40, 22]", fillcolor="#e5813973"] ;
677 -> 678 ;
679 [label="gini = 0.0\nsamples = 20\nvalue = [39, 0]", fillcolor="#e58139ff"] ;
678 -> 679 ;
680 [label="Num_person_household <= 0.03\ngini = 0.08\nsamples = 16\nvalue = [1, 22]", fillcolor="#399de5f3"] ;
678 -> 680 ;
681 [label="gini = 0.0\nsamples = 15\nvalue = [0, 22]", fillcolor="#399de5ff"] ;
680 -> 681 ;
682 [label="gini = 0.0\nsamples = 1\nvalue = [1, 0]", fillcolor="#e58139ff"] ;
680 -> 682 ;
683 [label="gini = 0.0\nsamples = 25\nvalue = [43, 0]", fillcolor="#e58139ff"] ;
677 -> 683 ;
684 [label="gini = 0.0\nsamples = 16\nvalue = [20, 0]", fillcolor="#e58139ff"] ;
656 -> 684 ;
685 [label="gini = 0.0\nsamples = 34\nvalue = [49, 0]", fillcolor="#e58139ff"] ;
655 -> 685 ;
686 [label="POT_VISIT_22_Q02 <= 0.0\ngini = 0.49\nsamples = 292\nvalue = [269, 193]", fillcolor="#e5813948"] ;
654 -> 686 ;
687 [label="Population_density_centile_US <= 0.71\ngini = 0.24\nsamples = 139\nvalue = [198, 33]", fillcolor="#e58139d4"] ;
686 -> 687 ;
688 [label="gini = 0.0\nsamples = 89\nvalue = [149, 0]", fillcolor="#e58139ff"] ;
687 -> 688 ;
689 [label="MCO_PROD_TYPE_CD_HMO <= 0.5\ngini = 0.48\nsamples = 50\nvalue = [49, 33]", fillcolor="#e5813953"] ;
687 -> 689 ;
690 [label="gini = 0.0\nsamples = 15\nvalue = [27, 0]", fillcolor="#e58139ff"] ;
689 -> 690 ;
691 [label="Est_BMI_decile_8.0 <= 0.5\ngini = 0.48\nsamples = 35\nvalue = [22, 33]", fillcolor="#399de555"] ;
689 -> 691 ;
692 [label="gini = 0.0\nsamples = 14\nvalue = [19, 0]", fillcolor="#e58139ff"] ;
691 -> 692 ;
693 [label="Index_Health_ins_engage_3.0 <= 0.5\ngini = 0.15\nsamples = 21\nvalue = [3, 33]", fillcolor="#399de5e8"] ;
691 -> 693 ;
694 [label="gini = 0.0\nsamples = 20\nvalue = [0, 33]", fillcolor="#399de5ff"] ;
693 -> 694 ;
695 [label="gini = 0.0\nsamples = 1\nvalue = [3, 0]", fillcolor="#e58139ff"] ;
693 -> 695 ;
696 [label="RX_THER_36_YR2016 <= 0.17\ngini = 0.43\nsamples = 153\nvalue = [71, 160]", fillcolor="#399de58e"] ;
686 -> 696 ;
697 [label="Pct_below_poverty_line <= 0.06\ngini = 0.48\nsamples = 119\nvalue = [71, 103]", fillcolor="#399de54f"] ;
696 -> 697 ;
698 [label="gini = 0.0\nsamples = 22\nvalue = [33, 0]", fillcolor="#e58139ff"] ;
697 -> 698 ;
699 [label="ACE_ELIG <= 0.5\ngini = 0.39\nsamples = 97\nvalue = [38, 103]", fillcolor="#399de5a1"] ;
697 -> 699 ;
700 [label="CON_VISIT_04_Q01 <= 0.02\ngini = 0.3\nsamples = 85\nvalue = [23, 103]", fillcolor="#399de5c6"] ;
699 -> 700 ;
701 [label="Est_income <= 0.09\ngini = 0.21\nsamples = 80\nvalue = [14, 103]", fillcolor="#399de5dc"] ;
700 -> 701 ;
702 [label="gini = 0.0\nsamples = 6\nvalue = [9, 0]", fillcolor="#e58139ff"] ;
701 -> 702 ;
703 [label="Decile_struggle_Med_lang_0.0 <= 0.5\ngini = 0.09\nsamples = 74\nvalue = [5, 103]", fillcolor="#399de5f3"] ;
701 -> 703 ;
704 [label="CON_VISIT_24_Q02 <= 0.01\ngini = 0.06\nsamples = 73\nvalue = [3, 103]", fillcolor="#399de5f8"] ;
703 -> 704 ;
705 [label="gini = 0.02\nsamples = 71\nvalue = [1, 103]", fillcolor="#399de5fd"] ;
704 -> 705 ;
706 [label="gini = 0.0\nsamples = 2\nvalue = [2, 0]", fillcolor="#e58139ff"] ;
704 -> 706 ;
707 [label="gini = 0.0\nsamples = 1\nvalue = [2, 0]", fillcolor="#e58139ff"] ;
703 -> 707 ;
708 [label="gini = 0.0\nsamples = 5\nvalue = [9, 0]", fillcolor="#e58139ff"] ;
700 -> 708 ;
709 [label="gini = 0.0\nsamples = 12\nvalue = [15, 0]", fillcolor="#e58139ff"] ;
699 -> 709 ;
710 [label="gini = 0.0\nsamples = 34\nvalue = [0, 57]", fillcolor="#399de5ff"] ;
696 -> 710 ;
711 [label="gini = 0.0\nsamples = 58\nvalue = [100, 0]", fillcolor="#e58139ff"] ;
609 -> 711 ;
712 [label="Est_BMI_decile_8.0 <= 0.5\ngini = 0.31\nsamples = 110\nvalue = [34, 142]", fillcolor="#399de5c2"] ;
608 -> 712 ;
713 [label="POT_VISIT_81_Q01 <= 0.02\ngini = 0.28\nsamples = 107\nvalue = [29, 142]", fillcolor="#399de5cb"] ;
712 -> 713 ;
714 [label="Est_income <= 0.09\ngini = 0.11\nsamples = 97\nvalue = [9, 142]", fillcolor="#399de5ef"] ;
713 -> 714 ;
715 [label="gini = 0.0\nsamples = 3\nvalue = [4, 0]", fillcolor="#e58139ff"] ;
714 -> 715 ;
716 [label="ACE_PASS <= 0.5\ngini = 0.07\nsamples = 94\nvalue = [5, 142]", fillcolor="#399de5f6"] ;
714 -> 716 ;
717 [label="CON_VISIT_17_Q03 <= 0.01\ngini = 0.03\nsamples = 92\nvalue = [2, 142]", fillcolor="#399de5fb"] ;
716 -> 717 ;
718 [label="POT_VISIT_23_Q01 <= 0.07\ngini = 0.06\nsamples = 45\nvalue = [2, 61]", fillcolor="#399de5f7"] ;
717 -> 718 ;
719 [label="gini = 0.0\nsamples = 43\nvalue = [0, 61]", fillcolor="#399de5ff"] ;
718 -> 719 ;
720 [label="gini = 0.0\nsamples = 2\nvalue = [2, 0]", fillcolor="#e58139ff"] ;
718 -> 720 ;
721 [label="gini = 0.0\nsamples = 47\nvalue = [0, 81]", fillcolor="#399de5ff"] ;
717 -> 721 ;
722 [label="gini = 0.0\nsamples = 2\nvalue = [3, 0]", fillcolor="#e58139ff"] ;
716 -> 722 ;
723 [label="gini = 0.0\nsamples = 10\nvalue = [20, 0]", fillcolor="#e58139ff"] ;
713 -> 723 ;
724 [label="gini = 0.0\nsamples = 3\nvalue = [5, 0]", fillcolor="#e58139ff"] ;
712 -> 724 ;
725 [label="ACE_PASS <= 0.5\ngini = 0.11\nsamples = 104\nvalue = [162, 10]", fillcolor="#e58139ef"] ;
605 -> 725 ;
726 [label="gini = 0.0\nsamples = 48\nvalue = [77, 0]", fillcolor="#e58139ff"] ;
725 -> 726 ;
727 [label="DUAL_Y <= 0.5\ngini = 0.19\nsamples = 56\nvalue = [85, 10]", fillcolor="#e58139e1"] ;
725 -> 727 ;
728 [label="gini = 0.0\nsamples = 19\nvalue = [35, 0]", fillcolor="#e58139ff"] ;
727 -> 728 ;
729 [label="RX_THER_16_YR2016 <= 0.02\ngini = 0.28\nsamples = 37\nvalue = [50, 10]", fillcolor="#e58139cc"] ;
727 -> 729 ;
730 [label="gini = 0.0\nsamples = 26\nvalue = [48, 0]", fillcolor="#e58139ff"] ;
729 -> 730 ;
731 [label="CON_VISIT_21_Q04 <= 0.01\ngini = 0.28\nsamples = 11\nvalue = [2, 10]", fillcolor="#399de5cc"] ;
729 -> 731 ;
732 [label="SEX_CD_F <= 0.5\ngini = 0.17\nsamples = 10\nvalue = [1, 10]", fillcolor="#399de5e6"] ;
731 -> 732 ;
733 [label="gini = 0.0\nsamples = 1\nvalue = [1, 0]", fillcolor="#e58139ff"] ;
732 -> 733 ;
734 [label="gini = 0.0\nsamples = 9\nvalue = [0, 10]", fillcolor="#399de5ff"] ;
732 -> 734 ;
735 [label="gini = 0.0\nsamples = 1\nvalue = [1, 0]", fillcolor="#e58139ff"] ;
731 -> 735 ;
736 [label="RECON_RX_RISK_SCORE_NBR <= 0.04\ngini = 0.4\nsamples = 2529\nvalue = [1107, 2913]", fillcolor="#399de59e"] ;
2 -> 736 ;
737 [label="RX_THER_03_YR2016 <= 0.03\ngini = 0.31\nsamples = 1200\nvalue = [376, 1544]", fillcolor="#399de5c1"] ;
736 -> 737 ;
738 [label="Pct_above_poverty_line <= 0.92\ngini = 0.35\nsamples = 1000\nvalue = [358, 1251]", fillcolor="#399de5b6"] ;
737 -> 738 ;
739 [label="Home_value <= 0.04\ngini = 0.26\nsamples = 562\nvalue = [141, 760]", fillcolor="#399de5d0"] ;
738 -> 739 ;
740 [label="CON_VISIT_30_Q04 <= 0.01\ngini = 0.22\nsamples = 541\nvalue = [108, 760]", fillcolor="#399de5db"] ;
739 -> 740 ;
741 [label="RX_THER_34_YR2016 <= 0.08\ngini = 0.21\nsamples = 538\nvalue = [102, 760]", fillcolor="#399de5dd"] ;
740 -> 741 ;
742 [label="PCP_ASSIGNMENT_UNATTRIBUTED <= 0.5\ngini = 0.18\nsamples = 527\nvalue = [87, 760]", fillcolor="#399de5e2"] ;
741 -> 742 ;
743 [label="RX_THER_01_YR2016 <= 0.02\ngini = 0.17\nsamples = 521\nvalue = [78, 760]", fillcolor="#399de5e5"] ;
742 -> 743 ;
744 [label="CON_VISIT_10_Q02 <= 0.03\ngini = 0.15\nsamples = 516\nvalue = [70, 760]", fillcolor="#399de5e8"] ;
743 -> 744 ;
745 [label="Decile_struggle_Med_lang_6.0 <= 0.5\ngini = 0.15\nsamples = 512\nvalue = [65, 760]", fillcolor="#399de5e9"] ;
744 -> 745 ;
746 [label="RX_THER_59_YR2016 <= 0.09\ngini = 0.14\nsamples = 507\nvalue = [60, 760]", fillcolor="#399de5eb"] ;
745 -> 746 ;
747 [label="POT_VISIT_12_Q02 <= 0.2\ngini = 0.13\nsamples = 505\nvalue = [55, 760]", fillcolor="#399de5ed"] ;
746 -> 747 ;
748 [label="CON_VISIT_06_Q02 <= 0.09\ngini = 0.12\nsamples = 503\nvalue = [52, 760]", fillcolor="#399de5ee"] ;
747 -> 748 ;
749 [label="RX_THER_49_YR2016 <= 0.09\ngini = 0.11\nsamples = 502\nvalue = [49, 760]", fillcolor="#399de5ef"] ;
748 -> 749 ;
750 [label="POT_VISIT_23_Q01 <= 0.13\ngini = 0.11\nsamples = 500\nvalue = [46, 760]", fillcolor="#399de5f0"] ;
749 -> 750 ;
751 [label="RX_THER_02_YR2016 <= 0.09\ngini = 0.1\nsamples = 498\nvalue = [43, 760]", fillcolor="#399de5f1"] ;
750 -> 751 ;
752 [label="CON_VISIT_05_Q04 <= 0.07\ngini = 0.1\nsamples = 497\nvalue = [41, 760]", fillcolor="#399de5f1"] ;
751 -> 752 ;
753 [label="gini = 0.09\nsamples = 496\nvalue = [39, 760]", fillcolor="#399de5f2"] ;
752 -> 753 ;
754 [label="gini = 0.0\nsamples = 1\nvalue = [2, 0]", fillcolor="#e58139ff"] ;
752 -> 754 ;
755 [label="gini = 0.0\nsamples = 1\nvalue = [2, 0]", fillcolor="#e58139ff"] ;
751 -> 755 ;
756 [label="gini = 0.0\nsamples = 2\nvalue = [3, 0]", fillcolor="#e58139ff"] ;
750 -> 756 ;
757 [label="gini = 0.0\nsamples = 2\nvalue = [3, 0]", fillcolor="#e58139ff"] ;
749 -> 757 ;
758 [label="gini = 0.0\nsamples = 1\nvalue = [3, 0]", fillcolor="#e58139ff"] ;
748 -> 758 ;
759 [label="gini = 0.0\nsamples = 2\nvalue = [3, 0]", fillcolor="#e58139ff"] ;
747 -> 759 ;
760 [label="gini = 0.0\nsamples = 2\nvalue = [5, 0]", fillcolor="#e58139ff"] ;
746 -> 760 ;
761 [label="gini = 0.0\nsamples = 5\nvalue = [5, 0]", fillcolor="#e58139ff"] ;
745 -> 761 ;
762 [label="gini = 0.0\nsamples = 4\nvalue = [5, 0]", fillcolor="#e58139ff"] ;
744 -> 762 ;
763 [label="gini = 0.0\nsamples = 5\nvalue = [8, 0]", fillcolor="#e58139ff"] ;
743 -> 763 ;
764 [label="gini = 0.0\nsamples = 6\nvalue = [9, 0]", fillcolor="#e58139ff"] ;
742 -> 764 ;
765 [label="gini = 0.0\nsamples = 11\nvalue = [15, 0]", fillcolor="#e58139ff"] ;
741 -> 765 ;
766 [label="gini = 0.0\nsamples = 3\nvalue = [6, 0]", fillcolor="#e58139ff"] ;
740 -> 766 ;
767 [label="gini = 0.0\nsamples = 21\nvalue = [33, 0]", fillcolor="#e58139ff"] ;
739 -> 767 ;
768 [label="CON_VISIT_33_Q02 <= 0.01\ngini = 0.43\nsamples = 438\nvalue = [217, 491]", fillcolor="#399de58e"] ;
738 -> 768 ;
769 [label="RX_THER_01_YR2016 <= 0.07\ngini = 0.39\nsamples = 414\nvalue = [174, 491]", fillcolor="#399de5a5"] ;
768 -> 769 ;
770 [label="POT_VISIT_81_Q03 <= 0.03\ngini = 0.38\nsamples = 410\nvalue = [167, 491]", fillcolor="#399de5a8"] ;
769 -> 770 ;
771 [label="POT_VISIT_12_Q04 <= 0.04\ngini = 0.35\nsamples = 400\nvalue = [147, 491]", fillcolor="#399de5b3"] ;
770 -> 771 ;
772 [label="CON_VISIT_19_Q01 <= 0.08\ngini = 0.35\nsamples = 396\nvalue = [140, 491]", fillcolor="#399de5b6"] ;
771 -> 772 ;
773 [label="POT_VISIT_21_Q04 <= 0.0\ngini = 0.33\nsamples = 391\nvalue = [129, 491]", fillcolor="#399de5bc"] ;
772 -> 773 ;
774 [label="DIABETES <= 0.5\ngini = 0.32\nsamples = 384\nvalue = [120, 491]", fillcolor="#399de5c1"] ;
773 -> 774 ;
775 [label="CON_VISIT_31_Q01 <= 0.02\ngini = 0.38\nsamples = 268\nvalue = [108, 320]", fillcolor="#399de5a9"] ;
774 -> 775 ;
776 [label="POT_VISIT_11_Q02 <= 0.05\ngini = 0.41\nsamples = 232\nvalue = [106, 266]", fillcolor="#399de599"] ;
775 -> 776 ;
777 [label="POT_VISIT_11_Q04 <= 0.02\ngini = 0.36\nsamples = 216\nvalue = [80, 266]", fillcolor="#399de5b2"] ;
776 -> 777 ;
778 [label="MCO_PROD_TYPE_CD_PFFS <= 0.5\ngini = 0.29\nsamples = 200\nvalue = [56, 266]", fillcolor="#399de5c9"] ;
777 -> 778 ;
779 [label="POT_VISIT_11_Q03 <= 0.02\ngini = 0.27\nsamples = 198\nvalue = [50, 266]", fillcolor="#399de5cf"] ;
778 -> 779 ;
780 [label="RES_INF <= 0.5\ngini = 0.21\nsamples = 191\nvalue = [35, 266]", fillcolor="#399de5dd"] ;
779 -> 780 ;
781 [label="Population_density_centile_US <= 0.79\ngini = 0.34\nsamples = 85\nvalue = [29, 107]", fillcolor="#399de5ba"] ;
780 -> 781 ;
782 [label="gini = 0.25\nsamples = 80\nvalue = [18, 107]", fillcolor="#399de5d4"] ;
781 -> 782 ;
783 [label="gini = 0.0\nsamples = 5\nvalue = [11, 0]", fillcolor="#e58139ff"] ;
781 -> 783 ;
784 [label="Decile_struggle_Med_lang_5.0 <= 0.5\ngini = 0.07\nsamples = 106\nvalue = [6, 159]", fillcolor="#399de5f5"] ;
780 -> 784 ;
785 [label="gini = 0.06\nsamples = 105\nvalue = [5, 159]", fillcolor="#399de5f7"] ;
784 -> 785 ;
786 [label="gini = 0.0\nsamples = 1\nvalue = [1, 0]", fillcolor="#e58139ff"] ;
784 -> 786 ;
787 [label="gini = 0.0\nsamples = 7\nvalue = [15, 0]", fillcolor="#e58139ff"] ;
779 -> 787 ;
788 [label="gini = 0.0\nsamples = 2\nvalue = [6, 0]", fillcolor="#e58139ff"] ;
778 -> 788 ;
789 [label="gini = 0.0\nsamples = 16\nvalue = [24, 0]", fillcolor="#e58139ff"] ;
777 -> 789 ;
790 [label="gini = 0.0\nsamples = 16\nvalue = [26, 0]", fillcolor="#e58139ff"] ;
776 -> 790 ;
791 [label="CON_VISIT_33_Q03 <= 0.04\ngini = 0.07\nsamples = 36\nvalue = [2, 54]", fillcolor="#399de5f6"] ;
775 -> 791 ;
792 [label="CON_VISIT_25_Q01 <= 0.01\ngini = 0.04\nsamples = 35\nvalue = [1, 54]", fillcolor="#399de5fa"] ;
791 -> 792 ;
793 [label="gini = 0.0\nsamples = 1\nvalue = [1, 0]", fillcolor="#e58139ff"] ;
792 -> 793 ;
794 [label="gini = 0.0\nsamples = 34\nvalue = [0, 54]", fillcolor="#399de5ff"] ;
792 -> 794 ;
795 [label="gini = 0.0\nsamples = 1\nvalue = [1, 0]", fillcolor="#e58139ff"] ;
791 -> 795 ;
796 [label="CON_VISIT_01_Q01 <= 0.01\ngini = 0.12\nsamples = 116\nvalue = [12, 171]", fillcolor="#399de5ed"] ;
774 -> 796 ;
797 [label="Decile_struggle_Med_lang_5.0 <= 0.5\ngini = 0.11\nsamples = 115\nvalue = [11, 171]", fillcolor="#399de5ef"] ;
796 -> 797 ;
798 [label="PCP_ASSIGNMENT_ATTRIBUTED <= 0.5\ngini = 0.1\nsamples = 114\nvalue = [10, 171]", fillcolor="#399de5f0"] ;
797 -> 798 ;
799 [label="MCO_PROD_TYPE_CD_PFFS <= 0.5\ngini = 0.14\nsamples = 82\nvalue = [10, 118]", fillcolor="#399de5e9"] ;
798 -> 799 ;
800 [label="CON_VISIT_19_Q01 <= 0.03\ngini = 0.12\nsamples = 80\nvalue = [8, 118]", fillcolor="#399de5ee"] ;
799 -> 800 ;
801 [label="POT_VISIT_23_Q02 <= 0.01\ngini = 0.16\nsamples = 58\nvalue = [8, 83]", fillcolor="#399de5e6"] ;
800 -> 801 ;
802 [label="CON_VISIT_09_Q04 <= 0.02\ngini = 0.13\nsamples = 57\nvalue = [6, 83]", fillcolor="#399de5ed"] ;
801 -> 802 ;
803 [label="gini = 0.07\nsamples = 56\nvalue = [3, 83]", fillcolor="#399de5f6"] ;
802 -> 803 ;
804 [label="gini = 0.0\nsamples = 1\nvalue = [3, 0]", fillcolor="#e58139ff"] ;
802 -> 804 ;
805 [label="gini = 0.0\nsamples = 1\nvalue = [2, 0]", fillcolor="#e58139ff"] ;
801 -> 805 ;
806 [label="gini = 0.0\nsamples = 22\nvalue = [0, 35]", fillcolor="#399de5ff"] ;
800 -> 806 ;
807 [label="gini = 0.0\nsamples = 2\nvalue = [2, 0]", fillcolor="#e58139ff"] ;
799 -> 807 ;
808 [label="gini = 0.0\nsamples = 32\nvalue = [0, 53]", fillcolor="#399de5ff"] ;
798 -> 808 ;
809 [label="gini = 0.0\nsamples = 1\nvalue = [1, 0]", fillcolor="#e58139ff"] ;
797 -> 809 ;
810 [label="gini = 0.0\nsamples = 1\nvalue = [1, 0]", fillcolor="#e58139ff"] ;
796 -> 810 ;
811 [label="gini = 0.0\nsamples = 7\nvalue = [9, 0]", fillcolor="#e58139ff"] ;
773 -> 811 ;
812 [label="gini = 0.0\nsamples = 5\nvalue = [11, 0]", fillcolor="#e58139ff"] ;
772 -> 812 ;
813 [label="gini = 0.0\nsamples = 4\nvalue = [7, 0]", fillcolor="#e58139ff"] ;
771 -> 813 ;
814 [label="gini = 0.0\nsamples = 10\nvalue = [20, 0]", fillcolor="#e58139ff"] ;
770 -> 814 ;
815 [label="gini = 0.0\nsamples = 4\nvalue = [7, 0]", fillcolor="#e58139ff"] ;
769 -> 815 ;
816 [label="gini = 0.0\nsamples = 24\nvalue = [43, 0]", fillcolor="#e58139ff"] ;
768 -> 816 ;
817 [label="PCP_ASSIGNMENT_UNATTRIBUTED <= 0.5\ngini = 0.11\nsamples = 200\nvalue = [18, 293]", fillcolor="#399de5ef"] ;
737 -> 817 ;
818 [label="Est_Net_worth <= 0.38\ngini = 0.09\nsamples = 198\nvalue = [14, 293]", fillcolor="#399de5f3"] ;
817 -> 818 ;
819 [label="CON_VISIT_24_Q01 <= 0.05\ngini = 0.06\nsamples = 194\nvalue = [9, 293]", fillcolor="#399de5f7"] ;
818 -> 819 ;
820 [label="CON_VISIT_02_Q04 <= 0.01\ngini = 0.04\nsamples = 192\nvalue = [6, 293]", fillcolor="#399de5fa"] ;
819 -> 820 ;
821 [label="RX_THER_27_YR2016 <= 0.01\ngini = 0.03\nsamples = 190\nvalue = [4, 293]", fillcolor="#399de5fc"] ;
820 -> 821 ;
822 [label="POT_VISIT_11_Q03 <= 0.01\ngini = 0.01\nsamples = 139\nvalue = [1, 211]", fillcolor="#399de5fe"] ;
821 -> 822 ;
823 [label="CON_VISIT_03_Q02 <= 0.01\ngini = 0.07\nsamples = 22\nvalue = [1, 28]", fillcolor="#399de5f6"] ;
822 -> 823 ;
824 [label="gini = 0.0\nsamples = 21\nvalue = [0, 28]", fillcolor="#399de5ff"] ;
823 -> 824 ;
825 [label="gini = 0.0\nsamples = 1\nvalue = [1, 0]", fillcolor="#e58139ff"] ;
823 -> 825 ;
826 [label="gini = 0.0\nsamples = 117\nvalue = [0, 183]", fillcolor="#399de5ff"] ;
822 -> 826 ;
827 [label="POT_VISIT_22_Q03 <= 0.0\ngini = 0.07\nsamples = 51\nvalue = [3, 82]", fillcolor="#399de5f6"] ;
821 -> 827 ;
828 [label="gini = 0.0\nsamples = 1\nvalue = [3, 0]", fillcolor="#e58139ff"] ;
827 -> 828 ;
829 [label="gini = 0.0\nsamples = 50\nvalue = [0, 82]", fillcolor="#399de5ff"] ;
827 -> 829 ;
830 [label="gini = 0.0\nsamples = 2\nvalue = [2, 0]", fillcolor="#e58139ff"] ;
820 -> 830 ;
831 [label="gini = 0.0\nsamples = 2\nvalue = [3, 0]", fillcolor="#e58139ff"] ;
819 -> 831 ;
832 [label="gini = 0.0\nsamples = 4\nvalue = [5, 0]", fillcolor="#e58139ff"] ;
818 -> 832 ;
833 [label="gini = 0.0\nsamples = 2\nvalue = [4, 0]", fillcolor="#e58139ff"] ;
817 -> 833 ;
834 [label="RX_THER_86_YR2016 <= 0.01\ngini = 0.45\nsamples = 1329\nvalue = [731, 1369]", fillcolor="#399de577"] ;
736 -> 834 ;
835 [label="Est_Net_worth <= 0.0\ngini = 0.43\nsamples = 1172\nvalue = [589, 1268]", fillcolor="#399de589"] ;
834 -> 835 ;
836 [label="DUAL_Y <= 0.5\ngini = 0.29\nsamples = 274\nvalue = [78, 356]", fillcolor="#399de5c7"] ;
835 -> 836 ;
837 [label="CV_CIR <= 0.5\ngini = 0.26\nsamples = 266\nvalue = [66, 356]", fillcolor="#399de5d0"] ;
836 -> 837 ;
838 [label="Pct_below_poverty_line <= 0.06\ngini = 0.48\nsamples = 40\nvalue = [24, 36]", fillcolor="#399de555"] ;
837 -> 838 ;
839 [label="CON_VISIT_19_Q02 <= 0.02\ngini = 0.14\nsamples = 26\nvalue = [3, 36]", fillcolor="#399de5ea"] ;
838 -> 839 ;
840 [label="gini = 0.0\nsamples = 3\nvalue = [3, 0]", fillcolor="#e58139ff"] ;
839 -> 840 ;
841 [label="gini = 0.0\nsamples = 23\nvalue = [0, 36]", fillcolor="#399de5ff"] ;
839 -> 841 ;
842 [label="gini = 0.0\nsamples = 14\nvalue = [21, 0]", fillcolor="#e58139ff"] ;
838 -> 842 ;
843 [label="CON_VISIT_33_Q02 <= 0.01\ngini = 0.21\nsamples = 226\nvalue = [42, 320]", fillcolor="#399de5de"] ;
837 -> 843 ;
844 [label="CON_VISIT_17_Q02 <= 0.01\ngini = 0.18\nsamples = 222\nvalue = [35, 320]", fillcolor="#399de5e3"] ;
843 -> 844 ;
845 [label="POT_VISIT_12_Q04 <= 0.0\ngini = 0.14\nsamples = 217\nvalue = [27, 320]", fillcolor="#399de5e9"] ;
844 -> 845 ;
846 [label="MUSCUL_BN <= 0.5\ngini = 0.1\nsamples = 206\nvalue = [18, 311]", fillcolor="#399de5f0"] ;
845 -> 846 ;
847 [label="Index_Health_ins_engage_1.0 <= 0.5\ngini = 0.07\nsamples = 202\nvalue = [12, 311]", fillcolor="#399de5f5"] ;
846 -> 847 ;
848 [label="CON_VISIT_04_Q01 <= 0.02\ngini = 0.05\nsamples = 199\nvalue = [9, 311]", fillcolor="#399de5f8"] ;
847 -> 848 ;
849 [label="RX_THER_57_YR2016 <= 0.01\ngini = 0.04\nsamples = 198\nvalue = [7, 311]", fillcolor="#399de5f9"] ;
848 -> 849 ;
850 [label="Est_BMI_decile_0.0 <= 0.5\ngini = 0.03\nsamples = 196\nvalue = [4, 311]", fillcolor="#399de5fc"] ;
849 -> 850 ;
851 [label="RES_COPD <= 0.5\ngini = 0.02\nsamples = 195\nvalue = [3, 311]", fillcolor="#399de5fd"] ;
850 -> 851 ;
852 [label="Population_density_centile_ST <= 0.12\ngini = 0.01\nsamples = 194\nvalue = [2, 311]", fillcolor="#399de5fd"] ;
851 -> 852 ;
853 [label="gini = 0.0\nsamples = 1\nvalue = [1, 0]", fillcolor="#e58139ff"] ;
852 -> 853 ;
854 [label="MCO_PROD_TYPE_CD_LPPO <= 0.5\ngini = 0.01\nsamples = 193\nvalue = [1, 311]", fillcolor="#399de5fe"] ;
852 -> 854 ;
855 [label="gini = 0.0\nsamples = 167\nvalue = [0, 277]", fillcolor="#399de5ff"] ;
854 -> 855 ;
856 [label="Index_Health_ins_influence_4.0 <= 0.5\ngini = 0.06\nsamples = 26\nvalue = [1, 34]", fillcolor="#399de5f8"] ;
854 -> 856 ;
857 [label="gini = 0.0\nsamples = 25\nvalue = [0, 34]", fillcolor="#399de5ff"] ;
856 -> 857 ;
858 [label="gini = 0.0\nsamples = 1\nvalue = [1, 0]", fillcolor="#e58139ff"] ;
856 -> 858 ;
859 [label="gini = 0.0\nsamples = 1\nvalue = [1, 0]", fillcolor="#e58139ff"] ;
851 -> 859 ;
860 [label="gini = 0.0\nsamples = 1\nvalue = [1, 0]", fillcolor="#e58139ff"] ;
850 -> 860 ;
861 [label="gini = 0.0\nsamples = 2\nvalue = [3, 0]", fillcolor="#e58139ff"] ;
849 -> 861 ;
862 [label="gini = 0.0\nsamples = 1\nvalue = [2, 0]", fillcolor="#e58139ff"] ;
848 -> 862 ;
863 [label="gini = 0.0\nsamples = 3\nvalue = [3, 0]", fillcolor="#e58139ff"] ;
847 -> 863 ;
864 [label="gini = 0.0\nsamples = 4\nvalue = [6, 0]", fillcolor="#e58139ff"] ;
846 -> 864 ;
865 [label="POT_VISIT_22_Q02 <= 0.08\ngini = 0.5\nsamples = 11\nvalue = [9, 9]", fillcolor="#e5813900"] ;
845 -> 865 ;
866 [label="gini = 0.0\nsamples = 5\nvalue = [9, 0]", fillcolor="#e58139ff"] ;
865 -> 866 ;
867 [label="gini = 0.0\nsamples = 6\nvalue = [0, 9]", fillcolor="#399de5ff"] ;
865 -> 867 ;
868 [label="gini = 0.0\nsamples = 5\nvalue = [8, 0]", fillcolor="#e58139ff"] ;
844 -> 868 ;
869 [label="gini = 0.0\nsamples = 4\nvalue = [7, 0]", fillcolor="#e58139ff"] ;
843 -> 869 ;
870 [label="gini = 0.0\nsamples = 8\nvalue = [12, 0]", fillcolor="#e58139ff"] ;
836 -> 870 ;
871 [label="Num_person_household <= 0.22\ngini = 0.46\nsamples = 898\nvalue = [511, 912]", fillcolor="#399de570"] ;
835 -> 871 ;
872 [label="Education_level_4.0 <= 0.5\ngini = 0.44\nsamples = 856\nvalue = [447, 912]", fillcolor="#399de582"] ;
871 -> 872 ;
873 [label="Est_BMI_decile_3.0 <= 0.5\ngini = 0.37\nsamples = 636\nvalue = [252, 778]", fillcolor="#399de5ac"] ;
872 -> 873 ;
874 [label="RX_THER_62_YR2016 <= 0.01\ngini = 0.34\nsamples = 609\nvalue = [213, 778]", fillcolor="#399de5b9"] ;
873 -> 874 ;
875 [label="Online_purchaser <= 0.5\ngini = 0.33\nsamples = 600\nvalue = [200, 778]", fillcolor="#399de5bd"] ;
874 -> 875 ;
876 [label="RX_THER_39_YR2016 <= 0.12\ngini = 0.29\nsamples = 556\nvalue = [157, 749]", fillcolor="#399de5ca"] ;
875 -> 876 ;
877 [label="CON_VISIT_33_Q03 <= 0.05\ngini = 0.28\nsamples = 550\nvalue = [149, 749]", fillcolor="#399de5cc"] ;
876 -> 877 ;
878 [label="HYPERTENSION <= 0.5\ngini = 0.26\nsamples = 539\nvalue = [133, 749]", fillcolor="#399de5d2"] ;
877 -> 878 ;
879 [label="gini = 0.0\nsamples = 12\nvalue = [16, 0]", fillcolor="#e58139ff"] ;
878 -> 879 ;
880 [label="CON_VISIT_32_Q04 <= 0.01\ngini = 0.23\nsamples = 527\nvalue = [117, 749]", fillcolor="#399de5d7"] ;
878 -> 880 ;
881 [label="Length_residence <= 0.01\ngini = 0.22\nsamples = 524\nvalue = [111, 749]", fillcolor="#399de5d9"] ;
880 -> 881 ;
882 [label="gini = 0.0\nsamples = 3\nvalue = [5, 0]", fillcolor="#e58139ff"] ;
881 -> 882 ;
883 [label="SEX_CD_M <= 0.5\ngini = 0.22\nsamples = 521\nvalue = [106, 749]", fillcolor="#399de5db"] ;
881 -> 883 ;
884 [label="CON_VISIT_24_Q04 <= 0.02\ngini = 0.29\nsamples = 228\nvalue = [66, 301]", fillcolor="#399de5c7"] ;
883 -> 884 ;
885 [label="CON_VISIT_33_Q04 <= 0.02\ngini = 0.26\nsamples = 224\nvalue = [56, 301]", fillcolor="#399de5d0"] ;
884 -> 885 ;
886 [label="CON_VISIT_11_Q03 <= 0.01\ngini = 0.24\nsamples = 219\nvalue = [49, 301]", fillcolor="#399de5d5"] ;
885 -> 886 ;
887 [label="gini = 0.23\nsamples = 218\nvalue = [46, 301]", fillcolor="#399de5d8"] ;
886 -> 887 ;
888 [label="gini = 0.0\nsamples = 1\nvalue = [3, 0]", fillcolor="#e58139ff"] ;
886 -> 888 ;
889 [label="gini = 0.0\nsamples = 5\nvalue = [7, 0]", fillcolor="#e58139ff"] ;
885 -> 889 ;
890 [label="gini = 0.0\nsamples = 4\nvalue = [10, 0]", fillcolor="#e58139ff"] ;
884 -> 890 ;
891 [label="Home_value <= 0.08\ngini = 0.15\nsamples = 293\nvalue = [40, 448]", fillcolor="#399de5e8"] ;
883 -> 891 ;
892 [label="RX_THER_31_YR2016 <= 0.01\ngini = 0.14\nsamples = 291\nvalue = [37, 448]", fillcolor="#399de5ea"] ;
891 -> 892 ;
893 [label="CON_VISIT_02_Q01 <= 0.04\ngini = 0.13\nsamples = 289\nvalue = [35, 448]", fillcolor="#399de5eb"] ;
892 -> 893 ;
894 [label="gini = 0.13\nsamples = 288\nvalue = [33, 448]", fillcolor="#399de5ec"] ;
893 -> 894 ;
895 [label="gini = 0.0\nsamples = 1\nvalue = [2, 0]", fillcolor="#e58139ff"] ;
893 -> 895 ;
896 [label="gini = 0.0\nsamples = 2\nvalue = [2, 0]", fillcolor="#e58139ff"] ;
892 -> 896 ;
897 [label="gini = 0.0\nsamples = 2\nvalue = [3, 0]", fillcolor="#e58139ff"] ;
891 -> 897 ;
898 [label="gini = 0.0\nsamples = 3\nvalue = [6, 0]", fillcolor="#e58139ff"] ;
880 -> 898 ;
899 [label="gini = 0.0\nsamples = 11\nvalue = [16, 0]", fillcolor="#e58139ff"] ;
877 -> 899 ;
900 [label="gini = 0.0\nsamples = 6\nvalue = [8, 0]", fillcolor="#e58139ff"] ;
876 -> 900 ;
